0.2181226 0.13784637 0.17291455 0.24456608 -0.15976009 0.26131848 0.13221799 0.23501164 -0.14940721 -0.42713392 0.33061054 0.33209065 0.08148796 -0.26387587 -0.7592406 0.24609676 0.31036422 -0.16676018 -0.5686668 -0.5448744 0.12633933 -0.13576807 -0.3726255 -0.21941426 -0.15032442 0.15016994 -0.261764 -0.37208894 -0.4943484 -0.07412851 0.3433495 0.06671994 -0.66296643 -0.347834 -0.5381137 0.17491347 0.563096 0.17203666 0.1474182 0.037595578 0.04506034 0.42276266 0.5959432 0.26731038 0.2768965 -0.063474424 -0.1286027 -0.052256636 0.21367685 0.028167559 -0.2181724 0.06580527 -0.06407942 0.07570181 0.17209144 -0.29742834 0.12203677 0.08184383 0.28899503 0.20526157 -0.09312582 0.04771279 0.06376802 0.52021503 -0.2657317 0.14753075 0.09455804 0.08929867 0.36987978 0.26227167 0.04869456 -0.018237073 -0.032196306 0.119877465 0.5769958 0.43863904 0.3884289 0.058423765 -0.1800527 -0.2064412 0.20182395 -0.421464 -0.5868087 -0.27740398 0.1938644 -0.7348903 -0.575533 -0.14473228 0.18855503 0.28326565 -0.2777261 0.20767279 0.31223834 0.33224714 0.08092303 0.35426995 0.18721747 0.14769623 0.06887691 -0.13089053 0.013065104 -0.07082843 -0.017881928 -0.20545253 -0.10203769 -0.25237435 -0.015037016 0.07382916 -0.044444863 -0.60573864 0.09721623 -0.06433664 0.11600665 0.22286384 0.3182111 0.11561292 0.19473785 -0.028962769 -0.11995763 0.0740348 -0.1448216 -0.09478812 0.06317636 -0.3447515 0.04510918 0.17614509 0.03457455 0.06744121 -0.33479956 -0.05234965 0.06378874 0.15940303 -0.07474605 0.04107007 0.094733074 -0.048984915 0.15248847 0.07198972 -0.038922586 -0.2036016 -0.079089254 -0.2727237 -0.43464217 -0.2854683 -0.27123365 -0.08678318 0.04504062 -0.5387547 -0.28669244 0.06823506 0.31641883 0.037039675 0.3175171 -0.81028265 -0.26091808 -0.0016196127 0.1083515 -0.062100906 0.10975929 -0.12289839 0.053294946 -0.06290629 0.054539554 0.1525754 0.087757885 -0.10027099 0.09502948 0.05010034 0.47420716 0.15813494 -0.1350273 -0.24146016 -0.20035607 0.5706713 0.31850046 0.07191099 -0.002969182 -0.3903693 -0.29059172 -0.10687273 -0.079107665 0.0664055 -0.0006225946 -0.05943252 -0.048343487 0.19568707 0.07285222 0.22660883 0.056819882 0.054123536 0.32227236 0.009115162 0.25462785 -0.12431321 -0.06021359 -0.14337021 -0.21916656 -0.11198226 -0.26572365 0.056266144 -0.23650378 -0.18484634 -0.29995784 -0.8463242 -0.24046206 -0.049799006 -0.16559057 -0.108191915 0.032342196 0.013381169 -0.17582175 -0.22013354 -0.0624909 0.080842674 -0.34138843 0.2966571 -0.13810612 -0.011532484 -0.13369775 -0.77388513 0.042135797 0.11577993 -0.18919583 0.13192102 0.074704416 0.16529094 0.32153827 0.039758004 0.16081461 0.07312308 -0.07724554 -0.3610695 -0.38889435 -0.3755576 0.010216117 0.1979182 0.1914665 -0.057296354 -0.15223686 -0.10961232 0.01822175 0.27658775 -0.07428012 -0.17733192 0.08258928 -0.2170139 -0.1609934 0.06993206 -0.21980913 0.31554258 -0.30951196 -0.1044513 0.06409854 -0.017018624 0.055570025 -0.075666055 0.11297281 0.009433278 0.03683349 0.26968518 0.11043799 -0.37403136 -0.54426324 -0.01615819 -0.17742145 0.22688565 -0.06873909 -0.37008077 -0.011763206 -0.25229576 0.21527563 -0.024362635 -0.016127141 0.07543606 0.010996359 0.32232022 0.27177665 0.20876884 0.1725842 0.21941464 0.1194112 0.08676251 0.31151757 0.14736305 -0.113522656 0.14638324 -0.26385555 0.11891679 0.063884124 -0.1131135 0.275838 -0.36484635 -0.17796293 0.19495124 0.00248099 0.05148428 -0.39402816 -0.14080982 -0.10771227 0.17294833 0.34899586 -0.106837146 -0.060116976 -0.041531 -0.062111758 -0.15937951 -0.07661174 -0.098834254 0.07695411 -0.2590485 0.12042195 0.15794902 0.24140711 0.34674922 0.014258378 0.13479806 0.08586463 0.11167891 0.10388279 -0.40268055 -0.41387564 -0.3342946 -0.37198576 -0.44209632 -0.34838063 0.024859082 0.14193156 -0.17907041 -0.44415727 0.1282589 -0.0003747249 -0.026501374 -0.24245803 -0.01770327 0.16783792 0.1427277 0.15810423 0.03579361 0.017667696 0.18106203 0.18768972 0.3558619 -0.15772772 -0.4246411 0.16546302 0.29625103 0.21895723 -0.32053623 -0.39010528 0.23625225 0.13232064 0.11034433 -0.021001823 0.15092374 -0.14430872 0.010753097 -0.009756433 0.121277206 0.09978742 0.09002459 0.23038097 0.34920722 0.22092529 0.13767579 0.0153996125 -0.01312679 0.11903745 -0.12039256 -0.34267807 -0.4282995 -0.54711825 -0.4057509 -0.37474996 -0.44992268 -0.3827387 -0.21385731 -0.03192232 0.13294657 0.049216483 -0.15131497 -0.07719525 -0.14842625 0.040983394 0.05249293 -0.08311784 -0.006321457 0.053854212 0.2995513 0.1790679 -0.37035695 -0.32484698 0.03903727 0.19078206 -0.02430471 -0.26577505 -0.34587553 -0.0705765 0.57407516 0.6320984 0.017344138 0.25449076 0.1291649 0.27498382 -0.07150674 -0.21218474 -0.39367086 0.028406253 0.073166266 -0.025142089 0.20353217 0.09579628 0.38103625 0.23644315 0.23726982 0.10643694 0.16336249 0.49538955 0.21662223 0.0962754 0.08973299 0.37453926 0.17582051 0.17675708 0.11749281 0.1347375 0.04869477 0.14165883 0.009882411 -0.06504332 0.24206805 -0.14477459 -0.28388527 -0.2352091 -0.40248853 0.0040191407 -0.5339669 -0.2361102 -0.185624 -0.1955568 -0.2628742 -0.46294454 -0.3250485 -0.26258934 0.07357686 -0.15673085 -0.3982984 -0.061982624 -0.029883185 0.082158074 0.06962545 -0.10121888 0.010369508 -0.012544076 0.055910937 -0.4768532 -0.28547812 0.020987265 0.05968274 -0.28004923 -0.1191242 0.03983705 0.056765273 0.1627575 -0.15439276 -0.3228765 0.1881863 0.110500745 0.11631166 -0.03838754 -0.009811809 -0.005759569 0.13379145 0.17094521 -0.068514705 0.04065433 0.15105315 0.31332776 0.13442618 -0.065903366 -0.442181 0.065910414 -0.078937806 -0.009266857 -0.6403278 -0.16791168 0.04452408 0.014287314 -0.12572889 -0.41234073 0.04327868 -0.17021771 0.04998563 -0.30029753 -0.122958064 0.042306587 -0.1436944 -0.21352395 -0.5249779 -0.04141799 0.26036793 0.025026048 -0.16603516 0.047026303 0.019593239 -0.14665157 -0.029179074 -0.054211088 -0.053450756 0.117785804 0.03248555 -0.39434218 -0.24462453 -0.31704783 0.056851625 0.17231132 -0.2389598 -0.24126232 -0.28412482 -0.057116818 -0.28454813 -0.20088159 0.030774295 0.00289421 -0.07068253 -0.12406619 -0.019711815 0.13161355 0.06508015 -0.024183333 0.050543524 0.021980595 -0.14849137 -0.05263784 0.11847629 -0.24464513 -0.0026499461 0.34510472 -0.18057753 -0.15167037 -0.24774899 -0.27828848 0.46640646 0.24417698 -0.078866094 0.2592277 -0.29293147 -0.2370763 0.25079846 -0.10379259 0.00075542636 -0.1506966 -0.22932643 -0.24559121 -0.12185253 0.2059959 0.2129943 0.14007725 0.058771763 -0.00071972725 0.13523652 0.36000383 -0.111919366 -0.119177684 -0.119380765 -0.23408855 0.1412588 0.001066668 -0.1676462 -0.051788792 -0.24475159 -0.071628265 0.109906904 -0.01052741 -0.095766746 -0.01782473 -0.1149447 -0.107484065 0.03284668 -0.19459133 0.024685195 0.041188512 0.22913124 0.29049146 0.07060368 0.054874294 -0.09883998 -0.24639358 0.4242403 0.028163537 0.07765882 -0.10649437 -0.5283895 -0.02753978 0.21369465 0.34045315 0.14561653 0.07903046 -0.06728544 0.2365361 0.4919061 0.3652797 0.35943162 -0.087835506 -0.15880898 -0.26142904 -0.2850461 -0.492656 0.00040328654 -0.2669076 0.347409 -0.012541962 -0.039325085 -0.26819935 -0.113703005 0.02304375 0.100573465 -0.25510564 -0.43880758 0.074559726 0.040691927 0.48525783 -0.17072721 0.08569973 0.24765284 0.034308 0.45542383 -0.35906732 -0.11033761 0.044981387 -0.19855951 0.15873124 0.31869236 0.43132377 0.28553215 -0.071305 0.072316036 0.24443313 0.042358123 -0.4098054 -0.0877628 -0.17406848 -0.26872063 -0.20001443 -0.19451453 -0.21395253 -0.17501715 -0.1658472 -0.013630606 0.054128084 -0.47212347 -0.07346043 -0.054226413 0.24362199 -0.12752314 0.20035325 0.19854379 0.30791476 0.2571549 -0.08302562 -0.004806221 -0.15233351 -0.35466582 -0.14362141 -0.20981005 -0.13062128 -0.08364565 -0.27021617 -0.086184055 0.09113858 -0.39592505 -0.21438432 -0.045470733 0.07856297 0.21707913 -0.042825103 -0.042227928 0.01119059 0.006532328 -0.049067553 -0.23673972 0.114667684 0.15312943 0.07871914 -0.09730182 0.04198969 -0.08006391 -0.017760063 0.15577821 -0.24291573 -0.015397817 -0.042431023 0.18040857 0.54621804 0.4103297 0.045639273 0.10470244 0.23833384 0.09683407 0.035509717 0.22298038 0.2351004 -0.24967721 -0.4227747 -0.20420563 -0.17896947 -0.039236754 0.0076076314 0.095208205 -0.03235677 -0.013614405 0.065035805 0.22845851 0.13523635 -0.36910683 -0.07611702 -0.14562878 -0.22176471 -0.09176645 -0.24631704 -0.044915836 0.019225534 0.011883782 -0.11124435 0.2794562 -0.004292424 -0.08639804 -0.022085574 -0.18493395 0.0013862724 0.19877793 -0.14489281 0.005010257 -0.048777763 -0.15715398 0.20030801 -0.19893163 -0.23170264 -0.30815157 -0.14474976 -0.048654687 -0.19460481 -0.2201542 0.07626486 0.25328192 0.16666286 0.06425781 0.30168602 0.2885427 0.27625504 0.23843478 0.007232413 0.15747227 0.2633339 -0.25840032 -0.21823783 -0.16388185 -0.25526318 -0.085720465 -0.2121137 0.03174381 0.17422989 0.22184774 0.30234918 -0.041609343 0.25449055 0.17827484 0.34356937 0.12885496 -0.016872065 0.04306874 0.019877622 0.0951435 0.08196005 0.10664227 -0.25683933 -0.32263902 -0.38627842 -0.28148875 -0.2828292 0.033526972 -0.039691783 0.013045545 0.24356076 0.16734037 0.07192001 0.009515613 0.10034641 0.23406072 -0.018967217 0.14564012 -0.07365983 0.03154116 -0.09565785 0.16093259 0.031153537 -0.08354619 -0.3319371 -0.20797765 0.33804864 -0.15957795 -0.19399275 -0.073055364 -0.20869717 0.10469977 0.042913526 -0.023006018 -0.028484818 -0.04094452 -0.42166138 -0.055878915 -0.24030031 0.2087364 0.28598902 0.223364 -0.32422403 -0.8761937 -0.87636966 -0.6909123 -0.16401793 0.007681285 -0.10148702 -0.25595486 -0.5926929 -0.56782913 0.32962167 0.26050502 0.19317001 0.29783478 0.17399313 0.061399072 0.22459084 -0.00876152 0.03958563 0.00078481995 -0.4029883 -0.26537064 -0.036995765 0.14856586 0.10232279 0.0979075 0.39759302 0.17702779 -0.4752369 -0.19144744 -0.13378957 0.2280528 0.39970866 0.29871354 -0.009946665 -0.008909608 0.18280625 0.15141542 0.21606383 0.22719015 0.044000722 0.011048506 -0.02754168 0.15181856 0.23460463 -0.29652822 -0.31791115 0.14037104 0.14451827 0.025846861 -0.17680229 -0.40511006 -0.3574153 -0.29013646 -0.33890927 -0.19076465 -0.06687566 -0.072109565 -0.24402137 0.00096233346 -0.010320397 0.24693255 0.16369192 0.10084884 0.08446613 -0.19121422 -0.011567287 0.009978693 0.16954827 0.397799 0.11212704 0.052781343 -0.12244843 -0.12772056 0.012109394 0.5932787 -0.05599976 -0.41852686 -0.286709 0.20676258 0.3487906 0.025059296 -0.2069394 -0.35194117 -0.24650465 0.29017204 0.021904867 -0.019868826 0.10906405 0.024133356 -0.62810415 -0.39800096 0.21167028 -0.020322612 -0.52654344 -0.30563942 -0.36662552 -0.1266903 0.18797797 0.09011479 -0.096261844 -0.09642784 0.0840257 -0.3877908 0.22211677 0.096218094 -0.4622145 -0.23779505 -0.06797434 0.35127935 0.011833746 0.06301678 -0.12191318 0.13155268 0.06869511 -0.15462233 0.26717266 -0.37874678 -0.042754088 -0.24023889 -0.14501229 -0.06924776 0.13090737 0.11272131 -0.1731274 0.30041742 0.124034666 0.11852091 -0.010204797 0.055817787 0.07770613 0.31249943 -0.14589448 -1.3325709 -0.40873453 0.55216837 0.5115042 -0.97711957 0.39006013 -0.12606674 0.7425859 0.27233467 -1.1997772 0.14498578 -0.27861157 0.35952437 -0.39406908 -0.07288767 0.72865367 -0.04242085 -0.26636702 0.28501928 -0.21722786 0.53144944 -0.4101962 0.119500205 0.027277235 -0.31383047 0.68642384 0.5585376 0.2397525 -0.043655638 -0.5860457 0.0627825 -0.031723343 -0.16143082 -0.011918843 -0.48290092 -0.571031 0.21507692 0.053792328 0.17722285 0.10462105 -0.63138974 0.3950469 -0.5171398 0.048096135 -1.2339272 -1.203242 -1.1104283 0.1918417 0.18446848 0.039594986 0.47774127 0.05754954 -0.21886712 -0.6216799 -0.5558788 0.14001925 -0.600928 0.04912796 0.22132784 0.017856168 -1.4874816 0.19919388 0.2062111 -0.027996471 -0.8237982 -0.23794413 0.53004766 0.34977704 -0.8368373 0.17534363 -0.3432914 0.2970813 0.48054525 -0.72390366 0.041016992 -0.4541174 0.5879512 0.09217916 -0.034353215 0.4171993 0.37311387 0.00042864794 -0.13062845 -0.30891904 -0.18025272 -0.42894545 -0.15981928 0.4403804 -0.09939921 0.055411503 0.21265455 0.22028095 0.2083845 -0.27696332 0.31591982 -0.35080546 -0.27281684 -0.22982271 0.02301479 0.25330132 -0.4609323 0.12682283 -0.076283425 0.46929708 -0.45155647 -0.06396189 0.14309977 0.19885762 0.06660187 -0.45874402 -0.070396066 0.23036763 -0.37249577 -0.56094044 -0.1809082 0.36727455 0.35466543 -0.017959734 0.060250014 -0.48505002 0.099976175 0.27575472 -0.19061685 -0.58142656 0.20488594 -0.32502654 -0.26886824 0.30427855 -0.040681593 0.13675134 -0.34023646 -0.17930043 0.28936094 0.45388493 0.2575078 -0.3430807 -0.46266645 0.38764957 -0.19201443 0.112654455 -0.7085693 -0.55958265 -0.22355716 0.044660248 0.08702909 0.40803167 0.5252347 0.03788952 -0.03127212 -0.29273534 -0.14949928 -0.08194693 -0.29095513 0.16867276 0.22794591 -0.26385424 -0.48628867 -0.09429635 0.13733932 -0.26100793 -0.08463953 0.07277655 -1.3450413 -0.10910976 0.1111246 0.13879637 -0.10766766 0.18163331 -0.5383448 0.106861524 0.21204506 0.085669644 0.011058104 -0.060493175 -0.06625928 -0.3493966 -0.31005028 -0.048825707 0.17772906 0.22216143 0.13429265 0.060122166 -0.4433737 -0.09556394 -0.14099358 0.18494017 0.11714633 -0.28883258 -0.052554067 -0.3927457 -0.014760462 -0.11607569 -0.14257024 0.02791891 -0.22397208 -0.06518714 -0.19299869 0.087107606 0.09438896 0.29710138 -0.26316658 -0.061038114 -0.02657639 0.19675069 -0.085632965 -0.7440932 -0.25602525 -0.007932861 -0.04760381 0.043573957 0.24753018 0.10667517 0.22706951 -0.19043726 -0.13079764 0.27976698 -0.29836977 0.22098802 0.23401469 0.029300306 -0.496748 -0.28294784 0.07258291 -0.056252435 -0.17494927 0.14230779 -0.28719825 -0.015274025 -0.06262065 -0.22361529 -0.32762066 0.047024157 -0.10071438 -0.13942686 0.12712027 -0.96249634 0.09751821 -0.26047972 0.058810223 -0.2403367 -0.27258196 -0.20238033 -0.032132924 0.10087603 0.23403348 0.17579572 0.13625352 0.01867592 -0.1780855 -0.05397958 0.1911271 0.17587468 -0.2698983 -0.14930855 0.14491239 0.086099476 -0.71796125 0.098185435 0.1693757 0.35300416 -0.39878386 0.34527892 -0.011655018 0.30782294 0.018274745 -0.13647507 -0.045054227 0.13499123 -0.1126352 -0.44954482 0.113251746 0.37798318 0.032332752 0.22817113 0.23077297 -0.31966326 0.2906877 -0.24059097 -0.12046894 -0.07034891 0.09515662 0.5533594 0.3935039 0.17731883 -0.10572761 -0.044694904 -0.018365113 0.12126686 -0.06198292 0.15527518 -0.7190766 -0.5362952 0.14857304 0.27525505 -0.05818015 0.3158912 0.17777282 0.115397766 -0.19785628 0.23545533 -0.15954533 -0.014628997 -1.0209086 0.18543914 0.15383057 0.36825752 0.8341026 0.1672275 0.07620692 -0.2029565 -0.6088071 0.042774715 -0.4624527 0.25636983 0.10255851 0.019909605 0.04067206 0.14980318 0.07178383 -0.023421232 -1.1822263 0.06999144 0.2259728 0.18857767 -1.1842185 0.021573342 0.15186478 0.5207373 0.39049473 -0.24220632 -0.18280235 0.09585447 0.37786764 -0.011957775 -0.03802783 0.47198182 0.048550844 -0.060565308 -0.018046856 -0.88729644 0.058498964 -0.40046105 -0.29946044 -0.052638274 0.040946923 0.23741207 0.12596998 -0.06738873 0.18730776 0.105431005 -0.4012247 -0.23288548 0.045763265 0.32009357 -0.7929013 0.21911159 -0.18421134 -0.114176854 0.31572297 -0.17818625 -0.29797006 0.109600164 0.31846622 -0.06858066 -0.0023261425 -0.15552263 -0.7974638 0.3598078 -0.32951123 0.131869 0.40344158 0.09193048 -0.15662307 0.16567315 -0.16252285 -0.09415195 0.24760921 0.052594457 -0.14788961 -0.2281104 -0.7006432 -0.46455443 -0.071909636 0.119660646 0.17387162 0.06387494 -0.62393403 -0.34524742 0.33622319 0.30681127 0.09639592 -0.18045184 -0.4585884 0.33522257 -0.14654261 0.10061983 -0.7102127 -0.37799537 -0.15853469 -0.100766204 0.12341509 0.27007928 0.5061325 0.18960346 -0.07837934 -0.24762142 -0.025326587 0.1470248 -0.021726567 0.09807644 0.0450379 -0.043264247 -0.38917524 -0.05483515 0.15735088 -0.14861031 -0.009373396 -0.112017944 -0.90568864 -0.31283462 0.19494201 0.114489324 -0.07443009 0.12983227 -0.30287987 0.082267694 0.16296788 -0.09550109 0.06769302 -0.042394392 -0.09429022 -0.6415197 -0.22946325 0.07172168 0.17171085 0.21578033 0.025607029 0.21686044 -0.09047647 -0.08084373 -0.023405178 0.042437628 0.09970834 -0.078855656 -0.0612897 -0.21527499 0.00076993345 0.105199 -0.048780475 -0.17870605 -0.17784947 -0.080483764 0.17781991 -0.023170397 0.03376487 0.043405313 -0.26266417 0.009162031 0.05127724 0.08308144 -0.1871143 -0.50054306 -0.20874065 0.157102 -0.06395268 0.07522858 0.25528124 0.016341493 0.075645134 -0.11551364 -0.16058047 0.048582267 -0.3301315 0.11595418 0.2504512 -0.044295438 -0.25716048 0.2709401 -0.3885474 -0.119803555 -0.59264904 0.045868415 0.042205747 -0.25484556 -0.20203885 -0.10996116 -0.0841158 -0.024259012 0.30591267 -0.2630444 -0.20469218 -0.053683404 0.36585 0.039346058 -0.113444194 -0.2193006 0.067618944 0.051637765 -0.039682865 -0.1968015 0.24965106 0.15656851 0.114469424 0.17561482 -0.1039075 -0.27264977 -0.32046464 0.3966081 0.016416783 -0.3458494 -0.008248138 0.090815544 0.05843577 0.04332823 -0.07953503 0.1861224 -0.024190838 0.027031198 -0.03037192 -0.079928845 -0.34293872 0.3195129 -0.0899346 -0.02146184 -0.20699193 -0.100905284 0.18091504 0.07045283 -0.033144686 0.09052734 -0.21788198 -0.07067441 0.15368178 -0.0400041 0.15534154 0.018492749 0.15102762 0.097530775 0.16855739 0.17118666 -0.26548433 0.48524156 -0.24592109 0.24653877 -0.39451918 0.42385927 -0.16254747 -0.49968415 0.1484371 0.3323291 0.32317692 -0.050523825 0.5600858 -0.27034158 0.34205785 -0.023920234 0.47962925 0.51138014 -0.66503525 -0.32046947 0.30754226 0.15706494 0.3275613 -0.06040294 0.018127024 0.4268585 -0.37382165 -0.16475804 -0.072772294 -0.082777336 -0.17094046 -0.27547884 0.32819003 0.07234045 -0.043364607 -0.03844423 -1.0199592 0.24780019 0.12615393 0.19400163 -1.040386 -0.10657282 0.1836547 0.19045559 0.23043846 -0.17559512 -0.35313538 0.027499167 0.2877856 -0.05247161 -0.041701548 0.510685 0.16141468 -0.7953055 -0.12531433 -0.65582097 0.11975924 -0.96965086 -0.1284833 0.24124625 -0.04641773 0.26911634 0.10861669 0.07759644 0.082768224 -0.31751585 -0.13266188 0.0016758078 0.22866186 0.12515235 -0.4933883 -0.041022953 0.5154854 -0.08609786 0.18559727 -0.1693975 -0.80393565 0.3850186 0.12481845 -0.12495366 -0.16541089 0.013849564 -0.055684395 0.068096414 -0.16756764 0.050688114 0.1258234 0.005076593 -0.1181931 0.27785578 -0.042343713 0.065729246 0.10825128 -0.032037582 0.07193824 0.16020796 -0.21897088 -0.20919226 -0.17281695 -0.03147645 0.14057484 0.066730134 -0.38031203 -0.3728098 0.33906147 0.02907163 0.21183366 -0.60774827 -0.42247507 0.3697742 -0.151064 -0.19533436 -0.15538712 0.0392641 0.1537202 -0.23058693 0.13984096 0.08157567 0.016232954 -0.035911623 -0.040333927 -0.03923167 0.0018712896 0.18522485 -0.020495059 0.029708331 0.25748524 0.25407374 -0.09324869 0.014910524 0.11393179 -0.070772946 -0.06025133 -0.115722805 -0.71458465 -0.32783303 0.07483351 0.105361 -0.16787356 0.07585571 -0.086298406 -0.07711601 0.3041575 0.041081585 0.1776935 -0.021935456 -0.2351316 -0.73395014 -0.03411059 0.0031652763 0.1811853 0.14029914 0.13495228 0.2156426 0.176206 -0.16159558 -0.0071463725 0.00444701 0.103542246 -0.084573336 -0.022229841 0.01939097 -0.10489421 -0.060610007 0.044972725 -0.13970938 -0.18608521 -0.22634898 0.1844118 -0.02476627 0.009198464 -0.01889152 -0.0053879283 0.08100281 0.12090976 -0.11433318 0.27542335 -0.012375551 -0.025471568 -0.18021435 0.013175597 0.106514685 0.18701723 0.07134117 0.090980954 0.22383125 0.045237035 0.15843387 -0.21833412 -0.1978599 0.10722015 0.08781137 0.011177161 0.3650577 0.016868373 -0.029583767 -0.18106142 0.05002224 0.14854395 -0.14437504 -0.11131176 0.008495115 0.0748893 0.17288445 0.50862277 -0.042955246 -0.19623497 0.16903605 0.1969444 0.33070514 0.07643707 -0.12694874 0.22064349 0.0077238902 -0.11180593 0.009585315 0.1859393 -0.0027808363 0.17406157 -0.02492271 0.039454218 -0.06889155 -0.21447958 -0.39766812 0.24778315 -0.18911792 0.09510165 0.08146023 0.148836 -0.042334795 -0.10607107 -0.00693152 0.14720431 0.06859136 0.1072149 -0.071025155 -0.4850723 0.29797104 -0.030497825 -0.013651417 -0.1046059 -0.08944997 -0.0026096397 -0.0019813247 -0.059528623 -0.0835192 -0.12270947 0.053312592 0.081587076 0.0022575895 0.14756456 0.0020670074 0.083890244 0.047443654 0.04989598 0.1121246 -0.06893498 0.6566534 -0.05264024 0.16117623 -0.7356697 -0.5101853 -0.17356844 -0.4891121 -0.10116234 0.34870216 0.09439504 0.10129218 0.76710874 -0.5037838 0.2578664 0.18596955 0.38883397 1.0400485 -0.56388324 -0.4112398 0.03810555 0.08156205 0.05150125 0.17306837 -0.52122754 0.45181683 -0.31393924 -0.205325 -0.052834533 -1.1519551 -0.92355174 -0.38105747 0.927772 0.18271437 -0.102028094 -0.15060125 -0.73301417 0.15211162 0.23641856 0.4093893 -0.55735874 -0.20910959 0.10801378 0.1963074 0.45802572 -0.05777561 -0.22559088 -0.017432176 0.16613199 -0.30707347 0.03598276 0.29000583 0.11495362 -1.1645461 -0.49043778 -0.7681184 0.03019397 -1.2354004 0.16190098 0.15732785 0.22543874 0.14286993 -0.10402475 0.232062 0.16511291 -0.0964969 -0.2679227 -0.054374963 0.27818042 0.13878877 -0.81874466 0.13082084 0.39440823 -0.11727942 0.12719998 -0.5773558 -1.0012945 0.46772817 0.05285704 -0.20724301 -0.1492722 -0.037507974 -0.03452557 -0.09560155 -0.056242164 -0.08983863 -0.13614011 0.10287851 0.14969419 0.20810808 0.06707984 0.065240175 0.16583808 -0.09407976 -0.15233725 0.21517187 -0.11920027 0.13597025 -0.5514474 -0.10833186 -0.19585516 0.02993737 -0.042994633 -0.12547445 0.22116478 -0.11440472 0.20786491 -0.58180964 -0.09996404 -0.27680773 -0.034127373 -0.53566843 0.06427814 0.29998884 -0.5484082 -0.074475236 0.08308664 -0.15385504 0.07915855 -0.27143508 0.25342366 0.27966562 0.09216399 0.36110368 -0.11436259 -0.30295026 0.14118424 0.5061668 0.065554135 0.15155596 -0.19562285 -0.08149515 -0.24583444 -0.08951299 -0.45930824 -0.0316619 -0.10211147 0.0850317 -0.2366984 0.10815501 0.065249875 -0.16228704 0.3654052 -0.120250024 0.16216433 0.11601832 -0.43977207 -0.780401 0.047053978 0.12637675 0.12915951 0.10355516 0.19394703 0.47061273 0.0864766 -0.0578202 0.006960929 -0.25156283 -0.19046657 -0.009145075 0.13201995 0.24622564 0.058191027 -0.14969888 0.03695914 -0.20091476 0.12546824 -0.72648877 0.09326296 -0.003982553 0.06958982 -0.019960077 0.10207943 -0.0006790726 -0.2204978 -0.03577655 0.30738375 0.20857221 -0.06617615 -0.09545002 0.1650944 -0.05757083 -0.044512875 0.2957947 -0.028064765 0.045619056 -0.13833885 0.23321302 -0.07237047 -0.22747691 -0.056227945 0.13234775 0.15848622 -0.24405754 0.2207038 0.14616066 0.10858526 -0.027186064 -0.16179883 -0.071881525 -0.2354442 -0.18477586 -0.46264917 -0.062669344 0.064066924 -0.13615184 -0.05119089 0.22014707 0.26523197 -0.0736845 0.14697984 -0.2324604 0.13788077 0.199512 -0.110944614 -0.066788204 0.25793222 0.17239363 0.3332157 -0.44640723 0.09674107 -0.23185267 -0.37250027 -0.3046054 -0.36388823 0.384443 0.28531232 0.1287879 -0.028317282 0.23729584 0.32733253 0.15206702 -0.14409322 -0.2917241 -0.036273118 -0.33864492 -0.02531095 -0.4713901 0.08729335 -0.39370307 -0.1753904 0.09676499 0.32263625 0.32798648 0.09643203 -0.15825465 -0.2956347 -0.035791393 0.15480368 -0.24932665 -0.10358554 -0.11974325 -0.031416174 0.005769004 -0.14382209 -0.05613331 0.20792049 -0.09870419 0.11279707 -0.15751046 -0.17163087 0.27721545 -0.8253352 -0.5574709 0.11953429 0.03207744 0.23463696 0.055124775 -0.12620838 0.15392262 -0.3079225 0.08494746 -0.27886042 -0.08475695 -0.26205546 0.13646568 -0.17507689 0.09199704 0.43148294 0.034073193 -0.22789155 -0.23737328 -0.8606308 0.16199267 -0.42712855 0.35354838 0.35757828 0.08290485 -0.31830686 0.096155286 0.08799282 0.026995886 0.05393925 -0.25503838 0.06701024 -0.0019173159 0.012042473 0.1608545 -0.10728432 0.08784749 0.14294401 -0.24813466 0.1821329 -0.78515464 0.18573922 0.14407139 0.14859174 0.0056488966 0.029217167 -0.009520589 -0.10766116 0.058931723 0.0747137 0.11217159 -0.07045856 0.06493988 -0.04107733 -0.022567036 0.008384665 0.047028948 0.15859471 0.112672314 0.09578248 -0.14558497 0.058294144 -0.1756807 -0.4884706 0.36246735 0.16383412 -0.062035963 -0.36238503 0.04812718 0.09352954 -0.0576589 0.19823764 -0.14857312 -0.04272825 0.31355327 0.056120414 -0.07525343 -0.7460181 0.090436734 -0.24852178 -0.010303225 -0.06441922 0.17920409 -0.3797947 -1.1692743 0.31490925 -0.18928884 0.028535698 -0.95581424 0.48280153 -0.38404644 -0.05411548 0.071403 0.021403546 -0.11167565 -0.17303352 -0.3485504 0.11606951 0.3282675 0.21071678 0.21848896 -0.3894051 0.18329608 0.016098 0.3561069 -0.3915864 -0.9641691 -0.66187334 -0.50324553 0.3459077 0.18012908 0.54889625 0.051099043 0.048978146 -0.18138306 -0.24803385 -0.093228295 -0.40812722 0.05258979 0.17400037 -0.14078316 -0.6013953 0.052023068 0.08157183 0.13321303 0.14349051 -0.5074824 -0.06541231 0.053886145 0.014245758 0.06768073 -0.17309576 -0.073555455 -0.10847721 0.10463131 0.0068161073 -0.014957358 0.16972771 0.274276 0.23384951 -0.035780415 -0.2753193 -0.037813194 -0.18283336 -0.026559576 -0.43642098 0.015712472 -0.007807223 -0.5851021 0.3113498 -0.14155789 0.019747999 -0.4229755 0.31994858 0.05094009 -0.14165328 -0.14675929 -0.11582377 0.014004781 -1.0477626 -0.23345488 0.24034965 -0.11805405 0.27091914 0.04728807 -0.18209736 0.24908644 0.02707738 0.09176136 -0.41279146 -0.14743999 -0.3756841 0.2805959 -0.12369561 0.0727528 0.5450574 0.098189525 -0.1745344 0.005361975 -0.98882496 -0.056928597 0.07072563 0.10918109 0.28582835 -0.05238673 -0.17614155 -0.36908442 0.15689456 0.19884287 0.011078449 -0.3965681 -0.052459985 0.12836671 -0.26344636 0.3388626 -0.27957946 0.3475976 -0.36316937 -0.15293716 0.26058587 0.10372297 0.33252537 -0.13514473 0.26531768 -0.31930488 0.10490959 -0.074957006 -0.035566412 -0.10224767 0.2972796 0.13589269 0.1943764 -0.09485371 -0.2835577 -0.06845984 0.24870156 0.11200916 -0.1849504 0.27641582 -0.22653978 -0.38534322 -0.060362462 -0.15997803 -0.0039758463 0.4055934 0.16552494 -0.40438908 0.13561343 -0.34876943 -0.01589791 -0.11248777 0.34129056 -0.3784769 -0.15868865 0.10626158 -0.14459573 0.3186453 -0.4305321 -0.033063192 0.21687156 -0.4388134 -0.1641999 0.3922358 0.07273775 -0.12915583 0.21415007 0.10828193 0.20699254 0.00082720385 0.2889119 -0.28482005 0.10234398 -0.0453978 -0.078823194 0.23566918 -0.6266454 -0.6668925 -0.0045898478 0.0037613339 0.12898606 0.05153158 -0.018834371 0.14516741 -0.5260711 0.045511078 0.08570823 0.10452639 0.07329317 -0.080707066 -0.00677444 0.2245168 0.0056703812 0.10266054 -0.06648321 -0.12997061 -0.4141424 0.105287425 -0.390736 0.20377272 0.08131968 0.23776788 -0.36050475 0.1473327 -0.14970478 -0.08231303 -0.17767273 0.09087602 0.005616143 0.04794216 -0.16653022 -0.08189782 -0.019468226 0.29483595 0.14258105 -0.0875043 0.066214554 0.0040123444 0.15040006 0.031194896 -0.04281846 0.056372575 -0.029939543 0.10197213 0.052660927 -0.27492943 0.0863886 3.6359765e-05 0.06431949 -0.027250903 -0.045883235 0.034799326 -0.14722012 -0.028835187 -0.0031938157 0.19279489 0.10962117 0.12992597 0.14658828 -0.0964461 -0.34949416 0.28335592 0.022319494 -0.12566751 0.035009485 -0.25445607 -0.14448416 0.11407782 0.32303435 -0.14480561 -0.081061296 0.20659655 0.20671947 0.16936001 -0.62052095 -0.06876752 -0.11327796 -0.04374976 -0.5117864 0.3921776 -0.44220632 -0.6231701 0.32899484 -0.006779068 -0.046446756 -0.75909734 0.38021407 -0.4824467 0.14228797 0.010022722 0.0530215 -0.05501501 -0.92744726 -0.60859597 0.1397624 0.37698707 0.03503151 0.061094243 -0.46672237 0.33553204 -0.20721452 0.012882179 -0.0070796823 -0.2846788 -0.14156373 -0.735284 0.18618174 0.25464755 0.18096367 0.16678503 0.040856138 -0.12303548 -0.11988191 -0.028628856 -0.25991014 0.08132625 0.0634793 -0.020769278 -0.7517329 -0.006255694 0.25071222 0.28666902 0.09245032 -0.87552655 0.12224544 -0.03928091 -0.071373925 0.12735833 0.13671772 -0.15321834 -0.002986722 -0.062217236 -0.19232422 -0.024357548 0.15779015 0.10370096 0.26589578 0.034748565 0.012744373 0.041294508 -0.06138951 -0.07578107 -0.72325677 -0.02762307 0.005227468 0.012485651 0.10505545 -0.18200688 0.14503092 -0.08994043 0.23246184 -0.1193452 0.02843589 -0.26225287 -0.21576189 0.1469364 -0.17573291 -0.09187143 0.1814012 -0.22527914 0.19305621 0.029632684 -0.2952318 0.0605888 -0.09552854 -0.14297602 -0.28249574 -0.16535778 -0.1367154 0.22688293 -0.20242466 -0.030015022 0.14738202 0.06441976 -0.1477837 -0.15799202 -0.13447441 0.029784376 -0.18786554 0.43790367 0.2457562 0.15659516 -0.18369308 0.2788374 -0.57590556 -0.0070227617 0.11473618 -0.15249112 -0.37634405 -0.10288484 -0.17318033 0.016766468 0.27489448 0.33457875 0.06318447 -0.07362431 0.12887277 -0.079704985 0.2589539 0.0682463 -0.36560878 0.19288287 0.31920123 0.15182859 0.106445126 -0.14248036 -0.092154965 0.120334096 -0.055871278 0.0048133787 -0.09701328 -0.108279675 -0.6086018 -0.09112926 0.024229782 -0.10363721 -0.01930065 -0.18200694 0.009613069 0.054673202 -0.20181768 -0.040512446 0.18829241 -0.15577963 -0.34393132 -0.15855412 -0.02817171 0.16332453 -0.06923361 0.15790692 0.083679155 0.031478252 0.08252298 -0.2245517 -0.5139528 0.057415348 0.034334898 0.15230802 0.11812397 0.14309306 -0.06416415 0.22537598 0.066991344 0.036021136 -0.005813502 -0.22063737 -0.07767147 0.02729509 0.1970794 0.113564156 0.07912818 0.33600438 -0.046641096 -0.71465623 0.17160168 0.03754472 0.11801333 0.13040532 -0.074982196 -0.007084499 -0.20115212 -0.10606283 0.1171275 -0.1130598 -0.48311138 -0.8119714 0.24511454 0.008921132 0.060703818 0.17501827 0.038857482 -0.106822945 0.22961219 -0.1201413 -0.48713276 -0.067226395 -0.21337114 0.10814094 -0.030821497 -0.015869794 -0.021869387 0.030363156 -0.22026198 0.061656542 -0.029292341 0.14981315 0.03465659 0.09703589 -0.043052353 0.29168057 -0.010325801 0.14172497 -0.13773525 0.027649684 0.11530527 -0.07072687 -0.082973905 0.1664486 -0.15194261 -0.62577915 0.15561338 0.04664942 0.064526506 -0.19250606 0.14198497 0.041867852 -0.112977766 0.2564729 0.122096255 0.029323075 -0.0853352 -0.012095205 0.059914287 0.13634166 0.09420908 -0.17145026 -0.09052786 0.2914536 0.055634283 -0.024487877 0.17385936 -0.15391502 -0.2657889 -0.014252925 0.266936 -0.20961599 -0.15410511 -0.045319233 -0.07307734 -0.103260964 0.10304786 0.09374725 0.111234 0.074531876 -0.108719885 0.20393643 -0.046549246 -0.1551537 0.23680134 -0.305028 -0.04262889 -0.15976182 -0.0120650055 -0.3387151 0.14727797 -0.13029851 0.06260317 0.15558429 -0.6958191 -0.23873235 0.27852663 0.07390815 -0.10615319 0.10491641 -0.4561371 -0.08258707 0.26686174 -0.08371197 0.20745093 -0.020643087 -0.08617394 -0.92755556 0.15124135 0.16727163 0.3268276 0.25163564 0.06751856 0.38153392 0.021606337 0.12158295 -0.17133929 0.10065786 0.052947104 -0.017892672 -0.086805314 0.056345254 0.27771345 -0.06632587 -0.18354245 -0.9178612 0.19047691 0.031181978 -0.27377814 0.24117017 0.35676768 0.34670278 0.055137392 0.04128865 -0.09120125 0.09378629 -0.047924045 -0.13477977 0.01312119 0.07767038 0.48345768 0.05870164 0.13465746 -0.050017998 -0.61122906 -0.36202812 -0.74622023 0.039119627 0.016455015 0.1665154 0.3148783 -0.0678245 0.0167386 0.15210107 -0.08392063 0.03014088 -0.9239621 0.41657144 0.021186253 -0.23656502 -0.15624493 -0.041767888 0.1403195 0.05310722 0.28695527 -0.121338084 -0.04656478 -0.14497493 0.32500416 0.14018153 -0.2942186 -0.2080964 -0.4083728 0.0029633606 0.20821133 -0.05204015 -0.047817696 0.2108907 0.0706841 0.2765296 -0.21823964 0.1852573 0.29565418 0.25161183 0.07763692 0.17911477 0.03836148 -0.0052969544 0.2548042 -0.19240332 0.107287996 0.27948174 0.15250549 0.23409764 0.4607895 0.33939382 0.1286507 0.16799797 0.22731888 0.02483567 -0.36170372 0.07536236 -0.11104394 0.16716246 0.14358251 0.032459006 -0.10331297 -0.051453426 0.029042622 -0.24090101 -0.4727264 -0.46057767 0.3578227 -0.004969092 0.08742858 -0.7088285 0.3266483 -0.17459905 0.14771478 0.09850001 -0.07795329 -0.03937239 0.035687167 -0.25579387 0.03875381 0.04358286 0.021416487 0.02168627 0.074785955 -0.1419753 -0.19889927 0.05606857 0.1372401 0.102530286 0.035850145 -0.009574489 0.07056215 0.073717475 0.07014728 0.06311119 -0.006118952 0.06626528 0.038910188 0.12676442 -0.23024116 -0.082237564 0.10504749 0.11142232 0.045771826 0.3886074 -0.17434467 0.25501373 -0.06967644 -0.5045743 -0.09563483 0.07204927 -0.22065836 0.27566907 0.55445474 0.33905488 0.38833162 -0.18726406 0.30458865 0.16573767 0.13270397 0.38287452 -0.68864596 -0.068816885 0.10519196 0.18569365 0.13512859 -0.20593289 -0.6676843 0.101857945 -0.5077433 -0.5023351 0.043247312 -0.3827735 -0.637826 -0.49053335 0.50689834 -0.54927486 0.027859464 0.004896989 -0.17756969 0.07510954 0.03364079 0.4808986 0.0787847 -0.061553285 -0.34241468 0.14780034 -0.060452115 0.065339565 0.3000809 -0.17868662 0.015856426 -0.63998026 0.16266166 0.027093925 -0.46709722 -1.1533768 -0.05261136 -0.13436857 0.3194957 -0.06579551 0.29627207 -0.011233728 0.017636491 0.2935813 0.16465159 0.3933915 -0.1695219 -0.031547505 -0.14866862 -0.103662714 -0.012298856 -0.05896649 -0.22748637 0.037130963 -0.035849184 -0.120787784 -0.09017715 -0.024298958 -0.018773954 -0.15856254 -0.0063038664 0.029490808 0.18577658 -0.03502688 -0.20264062 -0.30471194 0.23594302 -0.0049552135 -0.080579065 0.092619054 0.15796782 -0.018646397 0.1640922 0.14307795 -0.1532634 -0.20157932 -0.14651316 0.054050993 -0.13305391 0.11699038 -0.19711423 0.06410259 -0.41363406 0.14320274 -0.3096412 0.3002119 -0.3373505 0.05134785 -0.23961703 0.037690096 0.31419283 -0.6199281 0.41856658 -0.5343985 0.22517315 0.10799401 -0.22059523 -0.50514007 0.1370743 0.11998665 0.2529241 -0.12890367 0.23324198 0.46033967 0.13686691 0.048511688 0.09940091 -0.27568057 -0.06856113 0.20653234 0.15619965 0.060962167 0.07109774 -0.10277412 -0.11980497 -0.6427247 0.18301852 0.22020149 -0.32850212 0.13045971 0.11491956 0.100352354 -0.05106506 -0.17376955 0.25098166 0.028658435 -0.1819472 -0.2409677 -0.12656471 0.22895858 0.11652671 -0.047494862 0.1430369 -0.23929237 -0.4253609 -0.25128287 -0.9822821 0.0903513 0.06637539 0.13698334 0.18736427 0.0710693 0.10456718 0.12241258 -0.28728694 0.021810293 -0.58953714 -0.1260264 -0.00692039 -0.84201974 -0.21481189 0.08895575 0.3487724 -0.19643444 0.13318647 -0.10951303 -0.2544983 0.011342137 0.20561884 0.16152139 -0.32641202 -0.19881357 0.26080415 0.15687285 0.17644683 0.28332287 -0.56960434 0.050283927 -0.44833192 0.15330207 -0.20076765 -0.41321033 -0.38041016 0.04868254 0.16261345 -0.06616881 -0.0013506117 -0.2029558 -0.033302397 0.053756524 0.07013155 0.18335088 0.047038462 -0.22777988 0.05616638 -0.07362648 0.10783286 0.1044184 -0.24308024 0.027638366 -0.052483484 -0.0023124455 -0.06380452 -0.06202782 -0.0083155185 -0.12664598 0.0050255028 -0.15950006 0.21555291 -0.23781711 0.05459427 0.18640618 0.147958 0.10136809 -0.28475606 0.24411194 -0.14099978 -0.026845183 -0.04589193 0.18691574 0.060568072 -0.12904744 0.4414022 -0.41921127 -0.56252444 -0.23476835 -0.14529115 -0.31949997 0.075403325 -0.50338024 -0.046631604 0.49163944 0.015543291 0.0047372356 -0.044990063 -0.30835107 0.48300847 0.28394997 -0.16915053 -0.059661396 -0.016792433 -0.10968672 0.07499272 -0.06266323 -0.09790066 -0.2200197 -0.5536076 -0.0972044 -0.032101024 -0.057869155 0.22744636 0.13278414 -0.20053457 0.4212697 0.0702854 -0.1849383 -0.016175594 0.5455869 -0.013831432 0.07512718 0.12724124 0.0058540665 -0.11521646 0.52319527 0.12877838 -0.02018875 -0.03813119 0.043837406 0.022828287 0.30482087 0.42140436 0.12586635 0.11250358 0.16524684 -0.29546067 -0.7235689 -0.1096679 0.3488879 0.16853547 -0.30941272 -0.04102253 -0.1339972 0.09264863 -0.11927486 0.0022437319 -0.36301932 0.09494441 -0.05293027 -0.2420078 -0.08090756 -0.20354594 -0.06574334 -0.020687342 -0.3898829 0.066272974 -0.3640408 0.23992871 0.17306519 0.09241848 -0.12213501 0.12505625 -0.16887052 -0.14376655 -0.033469994 0.028956799 -0.018832855 -0.031214375 0.14568812 -0.18249418 -0.22387995 -0.1550482 0.23319678 0.10837773 0.25379792 0.09215776 0.08248961 0.1978732 -0.565292 0.009219691 0.27301753 -0.055024832 -0.0887241 -0.29250547 -0.18499546 -0.098838866 0.08310222 -0.009477761 -0.5020198 0.29944208 0.454497 0.27670202 0.006105649 -0.3860331 -0.14429808 -0.42437816 0.0444609 -0.5254647 0.1806857 0.063329265 -0.14011443 0.47114325 -0.27729347 -0.15793632 0.027037848 0.3925719 0.04340595 0.12776284 -0.03572976 0.21381094 -0.35069677 -0.12394497 0.23756708 0.12712267 -0.18587276 -0.113061 0.12050978 -0.3612948 -0.10503865 0.19364937 -0.066586524 0.01486296 0.06233276 0.18676448 -0.08630129 -0.30995363 -0.060107246 -0.15683377 0.10794587 -0.29555133 -0.021553783 0.015080801 -0.23923999 0.5305315 0.030377502 0.17910196 -0.80847925 0.16204637 -0.023647673 0.20837854 0.19032703 0.08597266 -0.35865092 -0.060792428 -0.012612781 -0.02253433 0.020076754 -0.08564378 -0.025243742 0.06752062 -0.024374824 -0.17059477 -0.056979846 0.10950818 0.19566488 0.40433854 -0.056935176 -0.07900527 0.08856848 -0.1558506 0.060492866 -0.20681453 0.058675323 0.11777036 -0.046534423 0.13517836 -0.059156388 0.07469719 0.08386325 0.12976667 0.0037454106 -0.064379215 0.74124926 0.03152278 0.17018162 -0.12793992 -0.26098457 -0.067599304 0.6410418 0.028106865 -0.03351699 0.21171725 0.029291008 -0.17591022 0.39956227 -0.00036022533 0.071668625 0.2012123 -0.1133716 0.06703918 0.41738588 0.37943068 -0.13767748 -0.23512731 -0.040194094 -0.4745303 -0.9419361 -0.18204366 0.101678 -0.29817858 -0.3659642 0.14449686 -0.13545035 -0.07155999 0.10920386 -0.10006548 0.25261128 -0.0063698557 0.13412762 -0.022477088 -0.042025175 -0.18211444 -0.17711759 0.2342209 0.24159668 -0.085127145 0.082763605 0.022322716 0.12533464 0.21928595 0.27974057 -0.31708494 -0.23851494 -0.14885746 -0.14779599 -0.039638102 0.08548272 -0.045341928 -0.038910862 0.45474038 0.29989484 0.037900418 -0.055526264 0.04989874 -0.05222744 -0.5176969 -0.045780767 -0.14618398 -0.05582425 -0.096316576 0.219146 -0.008280674 -0.24627335 -0.13092978 0.040510062 -0.12564552 -0.15957016 0.5158546 -0.4393136 -0.16482642 -0.10894336 -0.427524 -0.2490791 0.10384023 0.0461145 0.20016417 -0.49433953 -0.13555783 -0.11738523 -0.2432861 0.029021155 -0.11165839 -0.435495 -0.43877685 0.03055571 0.12425567 -0.30327994 0.20578212 0.5126928 0.18881507 -0.24182038 -0.12763849 -0.053457562 0.14564236 0.4135214 0.006517884 -0.2288339 0.019260777 0.08662605 -0.083829075 0.42338553 0.042352866 0.039843366 0.17324282 -0.13166891 0.16257927 0.31070486 0.11353586 0.154552 0.118388504 0.090471946 0.29413262 -0.4633277 0.100318976 -0.13131504 -0.0453557 -0.18400973 -0.020410003 0.16225484 -0.11342392 -0.043148614 0.010298803 0.044174597 -0.23546195 0.12982732 -0.18455367 -0.16137964 -0.13890778 -0.03570751 0.10022781 0.028462615 0.095399484 0.15185872 0.0847739 -0.049425486 -0.22674236 0.04241385 -0.07270005 -0.06942755 0.026479518 -0.0847874 0.010425759 0.0150453495 0.1305102 0.047791734 0.05818899 0.12823708 -0.1984749 -0.06928926 -0.18822937 -0.042247925 0.13383044 0.1933145 0.14889382 -0.49808773 0.14307366 0.061597038 0.064883046 0.11714872 0.031980593 -0.01067982 -0.015767822 0.10075581 0.2644476 -0.0010848392 -0.06081578 0.23460194 0.25752568 0.045317948 -0.16769724 0.056909982 -0.04436968 0.078944154 -0.9797197 0.1304744 -0.07725576 -0.1370427 0.44708246 -0.15829353 -0.036608674 -0.31774482 0.46663946 -0.16414452 0.11808054 0.099758126 0.100197844 -0.49307308 0.07907825 0.011766284 -0.08944331 0.04216568 -0.1992117 0.026043242 0.008111787 -0.104591504 -0.050459567 -0.028821362 0.3053152 0.25456974 0.17975415 0.018612636 -0.16240703 0.06894668 -0.07266239 0.048840046 -0.1895524 0.030263435 0.07327764 -0.44930252 0.08101981 0.0276111 0.097805895 -0.353897 0.10349371 -0.07391485 0.09863946 0.26411223 -0.11222803 -0.08122259 0.08841568 -0.0044861464 -0.05590567 0.17787227 0.045040634 -0.040892124 0.02161594 -0.17942673 -0.50057715 -0.034796376 0.010608904 0.02245155 0.11948132 0.23461647 0.1012982 0.044259626 -0.04587402 -0.096797414 -0.10786715 -0.07971374 0.036527403 0.13879538 -0.07333844 0.08613387 0.073520504 0.08376984 -0.01162686 -0.06405764 -0.33232564 0.47834045 0.020409277 0.19613916 -0.4069665 -0.86244065 -0.081871666 0.28701508 -0.09765434 -0.028519934 0.039352685 -0.0927629 -0.19832301 0.36437201 0.017446818 -0.037400797 0.25664493 -0.6993589 0.1537168 0.33267164 0.34871855 -0.34350967 -0.10178607 -0.0007292217 0.12704898 -0.42087457 -0.7033642 0.075368084 -0.15791579 -0.05641961 -0.22530149 0.055479612 -0.011440802 0.091870986 -0.012392628 -0.126416 -0.14815162 0.057364255 0.12688398 0.048191234 0.03653234 0.09041189 0.25794238 0.52725714 -0.12940244 0.29345357 -0.047413904 -0.07209109 0.021925444 0.053400274 -0.67316574 -0.13318214 -0.097743064 -0.017729841 -0.07860898 -0.027424714 -0.38602972 -0.5171848 0.35099676 -0.08029982 -0.1470077 -0.42604762 0.15304618 0.14677437 -0.37808868 0.059344023 0.12197184 -0.06153206 0.092571534 -0.14517233 -0.09076394 -0.07362018 0.1479649 -0.4724508 0.25897348 0.006231577 -0.027726643 0.3546459 0.006525899 0.080339536 -0.15851377 -0.04900883 0.087239705 0.05354624 0.112830125 -0.101830125 -0.14560828 0.037926108 -0.2804096 -0.21067825 -0.124298625 -0.1799827 -0.31298688 -0.46391225 0.060665235 -0.10065445 -0.19653943 -0.034411117 0.29290447 -0.06727665 0.072226755 0.29656288 0.2108354 -0.10070643 0.035727896 -0.16156186 0.061966687 0.21469782 0.0075222896 -0.034294877 -0.18382232 -0.015060657 0.043068852 0.12461075 -0.41520047 -0.206078 -0.24078844 -0.089400224 -0.31698433 -0.016810276 -0.18401816 -0.20056371 0.17829253 -0.22032304 -0.3654807 -0.26652655 -0.008146078 0.009416555 -0.018826295 0.07991329 -0.03830024 0.097283505 -0.28026882 -0.12798439 -0.024468403 -0.092289776 -0.27859926 0.067142665 0.21238932 0.26944888 -0.17874497 0.14699003 0.5497036 0.07632452 0.053052194 -0.102641046 -0.41766536 -0.33641192 0.16496946 0.04200583 0.04388416 0.12676512 0.013382865 -0.09561429 0.04833463 0.07934446 -0.06259682 -0.13743189 -0.20180497 0.007807868 -0.05691131 0.090841904 0.16496389 -0.5473625 0.103078425 0.022926569 0.20595254 0.088192604 0.2698481 -0.2581038 -0.13775802 0.05092714 0.1122673 0.02322331 -0.058738377 -0.032195933 0.06635239 0.1267199 0.11390042 0.033709858 0.13021623 -0.115463145 -0.55199903 -0.042503547 -0.028277926 0.038345918 -0.014547523 -0.18389516 0.0022047882 -0.049078736 0.067377 0.24380262 -0.02696293 0.01904811 -0.07720985 -1.0549071 -0.06555622 -0.20836484 0.015322697 0.20711155 0.0031413387 0.17214549 0.17937374 0.046437453 0.048116896 0.046489067 -0.024133623 0.022108981 -0.05697895 0.07115156 0.0819916 0.13497743 0.2609184 0.16330738 -0.17073718 -0.08825653 -0.39456072 -0.29610536 -0.22152732 -0.030878743 0.103793785 -0.042317063 0.12189693 -0.051680174 -0.028303111 -0.5298495 -0.100503705 0.012765021 0.29825014 -0.13960573 0.023123475 -0.05377721 -0.13219593 0.23064564 -0.017107766 -0.014153696 -0.2252927 0.03307192 -0.15799893 -0.049633186 -0.09879138 0.19180916 0.018341461 -0.062497493 0.08788895 0.059148394 -0.2744768 -0.2505038 -0.19844484 0.051361125 -0.2333811 0.1826746 0.13063036 -0.05514398 -0.05427252 -0.07280539 -0.2151798 0.033957344 -0.40095276 -0.3020294 -0.21707517 -0.31856784 -0.4179264 0.11743965 0.25168052 0.5028976 -0.13406523 -0.08505891 0.40764257 0.09525869 0.15875933 -0.09669365 -0.46646023 -0.33025816 0.18391009 0.01369733 0.06759034 -0.12853882 0.21073782 0.1411898 0.35294628 0.20595542 -0.6383039 -0.16003013 0.0106623685 0.108814985 -0.24343538 -0.18355042 -0.0339197 -0.27385047 0.2678896 -0.0737239 0.19715512 0.4158325 0.3815403 -0.1041677 0.070615 -0.13061573 -0.5873865 0.35391167 0.058736965 -0.37444243 -0.69615924 -0.05754443 0.14127478 0.15634763 -0.55494297 -0.35241032 -0.035117563 -0.08937203 -0.33136567 -0.22773948 -0.32783237 -0.3443708 0.36563194 -0.10074773 0.29699686 -0.16532256 0.40258288 0.15996891 -0.2866582 0.040238086 0.11674329 -0.30286437 -0.039189007 0.0008118774 -0.04958261 0.05721612 0.2584858 -0.24108005 0.0068505127 -0.00021066234 0.07542092 0.09744207 -0.06712917 0.061700452 -0.102266975 -0.11931427 0.246263 0.09420782 -0.016927559 -0.06717417 -0.22117369 -0.06859179 -0.24650067 -0.089086995 -0.1307801 -0.6084614 -0.19301113 -0.1512016 0.0922457 0.28724393 -0.2763116 -0.49676734 -0.3367707 -0.0274373 -0.13430375 0.30752903 0.15539531 -0.24330096 0.023235904 0.032111388 -0.5782922 -0.07544531 0.31154996 -0.16473566 -0.6326868 -0.38254377 -0.30016506 -0.22009818 -0.046753004 -0.40658292 0.012167646 0.030581146 -0.35425717 0.10025054 -0.14906126 -0.077681065 0.35385606 -0.079731226 -0.053248312 -0.060776275 -0.033033 -0.45885587 0.062375408 -0.02963818 -0.09558062 0.104272485 -0.09919982 0.19653668 -0.056764085 -0.10909994 -0.29031286 0.15537901 -0.25465545 -0.4592031 0.14612529 -0.40538982 0.25504974 -0.12855028 0.06640475 -0.21987814 -0.045486644 -0.05540644 0.054911647 0.1235738 0.07789219 0.24005479 0.1023226 0.17910622 -0.22771873 -0.033287343 0.1637652 0.15942098 -0.24131699 0.17743191 -0.59724957 -0.008635427 0.30460283 -0.47566143 -0.14589891 0.021828227 0.06268087 -0.04626009 0.104566075 -0.082246184 0.054643407 0.040904667 0.024778087 0.21847129 -0.14806575 0.019285738 -0.47359896 -0.017019946 0.20320968 0.06877254 0.023194402 -0.3112417 -0.21926855 -0.08244111 -0.3064517 -0.09149941 0.019070536 -0.42088544 -0.23698547 -0.11117811 0.088464044 -0.0106574735 0.098002754 -0.053226072 -0.40398717 -0.37426028 -0.03556379 0.030815465 0.030248122 -0.03594028 0.13145454 0.09281474 -0.017737601 -0.014901874 0.17438848 -0.41863438 0.049730625 0.103128724 0.067942396 0.4234932 -0.16504331 0.019411763 0.30452883 -0.096123435 -0.22834894 0.111734256 -0.07520796 -0.064086735 0.025626743 0.36398607 0.37434235 -0.0037286724 0.2810682 -0.30333772 0.0149975885 -0.2944652 -0.38775426 -0.07528012 0.169721 0.27481613 0.1020561 -0.2949813 0.021689432 0.0734446 -0.038288187 0.22353569 0.02535378 -0.1869818 -0.65366936 -0.3129942 0.11451624 0.49403933 -0.5743677 -0.3520828 0.19467406 -0.10573156 -0.43402874 -0.38844624 -0.25526482 0.04510089 0.28524324 0.24828184 0.45387888 -0.014233697 -0.002844249 0.28923067 -0.9349564 -0.12649423 -0.07608405 0.124672525 -0.24765362 -0.59336317 0.11314563 0.0941993 0.48601297 -0.2686416 -0.023457568 -0.036749437 -0.14197478 -0.0961936 0.07470369 0.20272757 -0.99761814 0.28589672 -0.15389167 0.08574615 0.092594765 -0.86672187 -0.7190547 -0.17764023 -0.67437536 0.02351907 -0.079755485 -0.26646656 -0.4765643 -0.049339287 0.19397327 0.19152945 -0.10714249 -0.5834676 -0.09329979 0.09592756 0.045894604 0.053685524 0.12460407 -0.32753822 -0.026702533 0.16702817 0.08929205 0.06280044 0.10768877 -0.24076635 -0.25802717 -0.015400382 -0.17109767 -0.07173535 0.11251245 -0.24814804 -0.22315663 -0.17772803 0.06280459 -0.18553182 -0.006076688 0.10742182 0.07487198 -0.05561256 0.05466605 0.07511785 0.1470538 -0.17967601 -0.7412884 0.1857514 -0.0052016764 -1.0453182 -0.42704394 -0.4012108 -0.09702167 0.24944107 0.29111058 -0.42437088 -0.073518515 -0.022689594 0.45448923 0.26605877 -0.15908302 0.10148281 0.11350348 -0.56874275 0.58511937 0.6292191 0.3823901 -0.8457549 0.21231195 -0.011232891 0.07349187 0.1988622 -0.35355002 -0.6628045 -0.6538394 0.24887379 -0.015181072 -0.12553875 0.057708953 0.28368196 -0.06270819 0.19137031 -0.008705943 -0.1887042 -0.04678584 0.14754729 0.1325983 -0.17906451 0.07954888 0.05069352 -0.20900904 -0.041063126 0.2388384 -0.09563013 0.25074196 0.057454716 -0.12600766 0.13519426 0.14505781 -0.04403389 -0.13980079 0.03573764 0.13887669 0.05157235 -0.08441594 0.1246668 0.032165527 0.04273798 -0.07221737 0.016879017 -0.26962948 -0.13098796 0.108174026 0.116869435 0.019671384 0.24507679 -0.29979557 -0.1506787 -0.0364629 0.03513549 -0.041931156 -0.18985455 0.11960588 -0.2439322 -0.11907164 -0.04629426 -0.27807206 -0.098800115 -0.10253655 -0.32783893 -0.1572169 -0.13455048 0.07213713 -0.07380341 0.0584055 0.10497567 0.03594844 0.05002432 -0.25632948 0.105569735 -0.07106747 -0.026204169 -0.09991312 0.0012251865 -0.011956521 -0.18406236 0.16284709 0.10981802 0.043156687 -0.21427412 0.0814461 -0.97010756 0.04035852 -0.019905671 0.110458605 -0.004452164 0.11778521 0.08686868 0.15840888 0.14247094 0.10543449 -0.04576255 -0.1211417 -0.7136348 -0.0025333145 0.11103476 0.12624256 0.12494858 -0.12145801 -0.14354837 0.022755703 0.26335326 -0.0725286 -0.10136793 0.2690964 0.21285582 0.1200314 -0.19835696 0.1066763 0.15358306 -0.0071518193 0.16332398 -0.21499689 0.17788033 0.03369014 -0.032656312 -0.033910066 0.12632997 -0.1694905 0.20893516 0.09904942 -0.014177374 -0.17813495 0.100578226 -0.1701124 0.16303128 -0.68700135 0.0036062628 0.22584997 -0.30763057 0.4177308 0.09716707 -0.02968258 -0.17385411 0.18215759 0.084175766 -0.6081377 -0.11310269 0.012566169 -0.0406789 0.0048631816 0.2804628 0.033503536 -0.23626052 0.17737871 -0.6976273 -0.13480276 0.06612169 0.18839718 -0.0037724639 -0.15392473 0.016784213 -0.079340495 0.22917053 0.038783837 -0.05722176 0.005021125 -1.3560036 -0.111786716 0.090341754 0.08262547 0.0742339 0.030214552 -0.10649416 -0.092017464 0.123546 0.13066697 -0.16899346 -0.0058062794 0.8271218 0.29891077 -0.52786624 0.016664993 -0.44064638 0.010036178 0.83065444 -0.057912324 -0.12706123 0.09774494 -0.026709566 -0.2428436 0.83380246 0.21920124 0.08251178 0.24355577 -0.29596165 0.16433956 0.5195062 0.21240923 0.12535594 -0.49700388 0.0037605905 0.14521521 -0.2594788 -0.4014508 -0.20867465 -0.4416872 -0.48335043 -0.16955316 -0.34546658 0.4181514 0.084259935 -0.26234373 0.2679914 0.057516254 0.045450818 0.16153683 0.04962029 -0.62834424 0.24457434 0.38001865 0.5197606 -0.83499616 -0.08560738 0.20642222 0.018583013 0.22926696 -0.056700215 -0.53937966 -0.59745884 -0.15192144 0.32183832 0.24312136 -0.06478541 0.064627305 -0.23417234 0.1891232 0.42755702 0.09940331 -0.049474712 -0.15841976 0.09059628 -0.47446302 0.1488782 0.057986833 -0.32537344 -0.18211333 -0.15395057 -0.36452916 0.13345386 -0.01752571 -0.053406555 0.19464365 -0.1878793 0.21300393 0.5464651 0.22450887 -0.06888643 0.05225604 -0.47333682 0.17776015 0.3775025 0.22016397 -0.42409775 0.16478622 0.17262642 0.08542897 -0.023139032 -0.23278265 -0.17130825 -0.609083 -0.07369929 -0.020007584 -0.023723327 -0.07582398 0.12999152 0.10969902 -0.08825708 -0.06417057 -0.27356783 0.13107246 -0.042531196 0.0946632 -0.5661468 0.05915887 0.07617292 -0.005599593 -0.0557514 0.040448718 0.06384504 0.024483535 -0.032376263 0.0722668 0.082227066 0.061931968 -0.22089005 -0.14750141 0.11943914 0.106134705 0.19833672 -0.38401937 -0.13575836 -0.17900491 0.07035982 -0.03293787 0.11622755 0.06768449 0.043154046 0.047512755 0.12797762 -0.059388842 0.014894851 0.023812689 0.12949339 -0.21056965 -0.003820061 0.15771468 0.3805864 -0.13324259 0.17069112 0.18495627 -0.016949793 0.052519836 0.0052109314 -0.22144128 -0.60893667 -0.05841985 0.16075929 0.03515727 0.031869903 0.019887114 -0.1514713 0.19470292 0.10671248 -0.049026385 -0.36332574 -0.0021572376 0.021758005 0.09161202 -0.062799625 -0.0011829272 -0.036903456 0.22842568 -0.1034916 0.08750356 -0.02520684 0.14785263 -0.39754492 0.046168 -0.08251103 -0.06455138 -0.13905199 0.024865922 0.29448944 0.16577733 0.016920967 0.010957367 -0.061032064 -0.10776801 0.066282496 -0.075119354 -0.035903912 -0.015988937 0.18275976 -0.09548171 -0.18367396 0.06950622 0.30447522 0.15269636 -0.1614857 0.12823205 0.27913642 -0.011549977 -0.28293934 0.07589314 0.20710965 0.033903353 0.11749382 -0.07921033 0.07166096 0.17629354 0.020258352 -0.02526503 0.07664958 0.0018993109 0.13831596 0.1380751 0.086669296 -0.1264099 0.10370952 0.0060620797 0.070978135 -0.5629847 0.14678168 0.38263002 -0.12542836 0.09309981 0.14663047 0.09344919 -0.015898658 0.2209653 0.119187154 -1.049468 -0.16664217 0.037490014 0.15193973 -0.098893985 0.09082128 0.0017987797 -0.3186021 0.19816048 -0.45677382 -0.041886427 0.025967123 0.0978139 -0.056920946 -0.071058676 0.042026665 -0.3116907 0.16374952 0.039679408 -0.009190538 -0.04412578 -0.9962286 -0.07366279 -0.07720601 -0.007756904 0.05830322 0.033553045 0.024946444 -0.24621294 0.09832965 0.12802573 -0.0246805 -0.14965752 0.44146764 0.049656924 -0.29255566 -0.11622057 -0.20944524 -0.2120355 0.3974906 -0.051745143 0.04669956 0.14620192 -0.13844624 0.02035064 0.37124518 0.2992 0.05609319 0.24752024 -0.47636494 0.13594154 0.13946497 0.021530572 -0.1286737 0.004841247 0.20899846 0.4261262 -0.102161564 -0.5437912 -0.25408033 -0.5113207 -0.16778192 -0.056437135 -0.52077246 0.4601059 0.16194227 -0.24231125 -0.13745514 0.11158281 0.08340714 0.3175153 0.2957131 -1.0194705 0.030661445 -0.008215709 0.3221303 -0.31257033 0.08666651 -0.079017185 -0.115643986 0.33015507 0.010864063 -0.25367588 -0.4079019 -0.25790706 0.28266558 0.12277812 0.1588837 -0.14156407 -0.3429147 0.233034 0.21090147 0.30469298 -0.13046232 -0.09326728 0.407025 -0.30077997 0.039839044 0.3302542 -0.25898364 -0.29648545 0.034723222 0.10606159 0.18788256 0.6080504 -0.13391481 0.13586092 0.18280526 0.3829976 0.35514984 -0.016999098 0.13885966 -0.055072848 -0.22683424 -0.11899315 0.18441126 -0.09810518 -0.284136 -0.4233952 -0.060783353 -0.52729285 -0.5990965 0.10357756 -0.3741206 -0.45109135 -0.58478343 0.28060767 -0.04897949 -0.27354515 -0.037982166 0.061420843 -0.11374646 0.079652786 -0.19821541 -0.09101956 -0.2174128 0.026720507 -0.39774483 0.038881306 -0.15530439 -0.044266306 0.06814733 0.1370862 0.039221514 -0.2944069 0.026339011 0.11787952 -0.009878969 -0.014919609 -0.22321008 -0.0003252235 -0.02360342 -0.025043542 0.12828398 -0.38496092 -0.23263651 -0.249511 0.062415004 -0.1339927 -0.3289911 0.17676468 0.14218584 -0.014034855 -0.024586257 0.05430931 -0.12961298 0.058472298 0.33941242 -0.3965729 -0.031891804 -0.0086734425 -0.09126541 -0.21983418 0.4150585 0.47461212 0.07012255 0.10671427 -0.03820386 -0.09756507 -0.1843259 -0.19409764 0.10698008 0.17334318 0.060160395 0.413548 -0.27588823 0.04697153 -0.010234933 0.06121499 -0.28625128 -0.028045576 0.25123203 -0.34442505 -0.31495723 0.16529863 0.19213603 0.15608026 0.06715961 -0.0044051404 -0.054372493 0.26511362 -0.15153056 0.08219483 0.12031854 -0.021002494 0.08468809 -0.23081379 -0.15941548 -0.28832963 0.3871272 -0.07428521 0.010783336 0.10991601 -0.3993255 -0.3368528 -0.4174627 -0.35502425 0.005044925 0.0044188923 -0.10881803 0.031438265 0.18807374 -0.047487546 -0.098895475 0.008984983 0.212037 -0.38370758 0.07905865 -0.03210673 0.025397092 -0.079771765 -0.090907454 0.12812985 -0.18391849 -0.060632404 -0.12870488 -0.3194692 -0.45509994 -0.06307088 -0.16143584 0.16593832 0.23980677 -0.19548632 0.086162314 0.032550506 -0.110195406 -0.61005133 -0.22249134 -0.02725293 -0.06411281 -0.12675798 -0.05547093 0.059086964 -0.113738485 -0.005167604 -0.15722153 -0.597822 -0.32390323 -0.2179723 0.34209588 -0.070215374 -0.25282922 -0.122971274 -0.5885544 -0.13397025 -0.42886007 0.32814732 0.076802045 -0.11959092 -0.044316147 -0.09962815 -0.016617026 -0.09880548 0.27003387 -0.1241505 -0.07097734 -0.085634 -0.8002972 -0.30768663 -0.17007077 -0.0059507103 0.15657987 -0.16542022 0.2055274 0.018361118 0.072274566 0.001524162 -0.08114158 -1.0775447 0.05950928 0.32461882 -0.2666814 -0.874035 0.39314198 -0.19707271 -0.02772452 0.21805568 -0.20352614 -0.09623862 -0.08222248 0.40463614 0.032457244 0.11440225 0.01566846 0.0072835493 -0.29631847 0.2794503 0.1013607 0.19896485 -0.6545656 0.4029599 0.09986252 0.116342515 0.123133644 -0.3114467 -0.2561101 -0.4449204 0.07871733 -0.15900141 -0.6240084 0.43636286 -0.28359395 -0.12325158 0.38982975 0.26488167 0.15521474 -0.13122721 0.17031501 -0.57488376 0.31112736 -0.51513577 -0.24817859 -0.06322828 -0.49930236 -0.09960328 -0.38003075 -0.003846724 -0.021216558 -0.17512828 -0.42126554 -0.087000355 0.06702402 -0.053283103 0.152659 -0.07134599 0.033471227 0.019558363 0.3919271 0.38913313 0.22800606 -0.17447372 0.34832248 -0.32762638 0.0395655 0.21317258 -0.31736562 -0.24563311 0.32499886 0.07146887 -0.020338146 0.100249164 -0.38539433 -0.004692184 -0.038066413 0.11486958 0.0019279771 -0.036581457 -0.0150624085 -0.08753239 -0.104467705 -0.06449696 0.1175619 -0.24987136 -0.12910055 -0.2296412 -0.08737255 -0.3779931 -0.33048943 -0.005364935 -0.38696173 -0.28376713 -0.16602224 0.25580865 -0.051245194 -0.34462112 -0.52908826 -0.1403173 0.11589637 0.052282594 -0.3640387 -0.17266682 -0.3845921 -0.08557962 -0.0799953 -0.06954672 -0.005816751 -0.056992512 0.008120232 0.07901175 -0.088288955 -0.52934813 0.1867156 0.18686244 -0.116122484 -0.11116035 -0.1252822 0.08566937 -0.01906668 0.035019368 0.24738085 -0.39020824 0.02751816 -0.25676557 0.12112112 -0.13605814 -0.12098047 0.26706752 0.16961914 0.05002089 -0.5956971 -0.025223479 0.14815234 -0.24628928 0.2265718 -0.13371496 0.06687794 -0.004560621 -0.40736684 0.05053054 0.19403964 0.24322362 -0.09867769 0.04331806 -0.20717862 0.2116952 0.17968571 -0.116492644 0.12125578 0.07795016 0.1657107 0.20148443 -0.032184366 -0.22246365 -0.1962518 0.03860619 -0.017364707 -0.2241174 0.04215265 -0.41514271 -0.19471973 -0.00962318 0.06882696 -0.059184592 0.2141518 0.04650033 -0.25392744 0.15737385 -0.4304414 0.039451506 0.24597603 -0.085570924 -0.038753964 -0.19899926 -0.21569179 -0.10622199 0.38240117 -0.23697902 -0.014849949 0.094193965 -0.74820614 -1.1340222 -0.3327306 -0.6001489 0.24069424 0.02085527 -0.03003198 0.13928665 0.35789308 -0.11784339 -0.3419806 0.049823463 -0.35822994 -1.1196853 0.09315247 0.1362161 0.017153475 -0.16929793 -0.1094012 -0.20789126 0.20980513 0.15523876 -0.0013857079 -0.423436 -0.15909287 -0.32048336 -0.105825886 0.28875634 0.0748409 -0.4122057 -0.412494 0.12882127 0.06572538 -0.5078981 -0.83926785 -0.43417132 0.08493514 -0.09947726 0.62534934 0.588399 0.12581463 0.095921084 -0.5972502 -0.020537384 0.13684496 -0.78178287 0.54392135 -0.31199554 -0.35803095 0.0090470025 -0.7572809 -0.4101982 -0.4566323 -0.1526652 0.028293578 -0.24650005 -0.3147909 -0.18217227 0.005737502 0.37133273 0.017641721 -0.5507349 -0.2863161 0.123097196 -0.85289687 -0.32497033 -0.282353 0.06392184 0.5534555 -0.39069217 0.48101628 0.36095095 0.38195908 -0.15337211 -0.14198232 -0.16076334 -0.1635752 -0.29384843 0.43822154 -0.3848568 -0.4753812 0.2579078 -0.32634532 0.041665874 -0.09821467 0.086286284 0.38243398 -0.23573527 -0.42566174 -0.0011502985 -0.068169355 0.2061694 0.17521533 -1.2673864 -0.31431803 0.4807463 -0.37136564 -0.5696934 -0.38382033 -0.6498984 -0.27606824 -0.0122131575 0.67803895 0.82426554 0.29059193 -0.10704121 0.60957277 0.043687973 -0.61990666 0.23904473 0.11755947 0.21180038 0.64648354 0.30743632 -0.34289008 -0.07011755 0.22887686 0.1578293 0.327668 0.3546268 -0.21210407 -0.06333224 0.13524638 -0.22535168 0.15432923 0.18729244 -0.58601093 -0.57453936 0.29503003 0.58826524 0.3274274 0.18377858 -0.03522032 0.6707432 -0.21009913 -0.25049037 -0.10038735 0.42482227 0.10134329 0.22794186 -0.8733818 0.27226418 0.2332742 0.335309 0.06924426 0.030772733 -0.23716028 0.656787 0.09513224 -0.54290444 0.2972236 0.070958085 0.030752987 0.24346471 -0.4497984 -0.76593757 0.11275454 -0.45775136 -0.76120585 0.12547141 -0.29756558 0.07351933 0.31334856 -0.32598257 0.10487699 0.0005635509 0.33480725 -0.16878478 -0.18215896 0.35594615 -0.2722102 -1.0979598 -0.117701225 0.34202495 -0.48987326 0.13617949 0.5684277 -0.13324466 0.09828202 0.00749885 0.12265021 0.13951 -0.20466982 0.21271418 -0.116585515 0.3959739 -0.38555792 0.014558939 0.2769871 0.14068791 0.09265079 -0.26501173 0.14862026 0.22787729 -0.3411133 0.510898 0.19493952 0.5905203 -0.037706297 0.6782332 0.0055126874 0.69495475 0.5668721 -0.017231239 -0.10013778 0.13931797 -0.07393142 -0.14840442 -0.27645275 -0.24931319 0.59069365 -0.20126626 -0.6989676 -0.006599018 -0.05847133 0.044507187 0.5929638 -0.4683652 0.08693607 -0.19298427 -0.88889045 -0.29238036 -0.28142643 0.76713306 0.021194665 0.33255437 0.043410685 -0.024227431 0.48456627 -0.18721268 -0.40091565 0.034498006 0.21247113 0.2134591 0.20670529 0.12274454 -0.6736773 0.29933205 0.018437313 0.5197818 -0.21460979 0.19454405 -0.006663681 -0.050157577 0.38578922 0.34718326 0.09499177 0.8161505 -0.13176182 0.14398445 0.08542428 -0.12678248 0.33255553 -0.34482324 0.14960355 -0.6870024 0.27718684 -0.44409636 0.099422894 -0.08221533 0.07046761 0.42833582 0.27441108 0.47143242 0.2029672 0.25560287 -0.2538495 -0.8182737 0.16734055 0.24544531 -0.7138453 0.14974049 0.5701954 -0.0072090137 0.30632088 0.05988583 0.15686028 -0.066623226 0.26185 0.1838121 -0.09419655 0.43286493 0.10061458 -0.034548342 0.1496477 -0.030558115 0.40893778 0.23308249 0.44062838 -0.17619745 -0.18081786 0.49661195 0.10898559 -0.30090603 -0.07432583 0.08005546 0.6394321 0.11417659 0.17558937 0.13535967 0.06328722 -0.022707373 -0.4086587 0.38985398 0.26648816 -0.14213718 0.47710887 -0.1772012 0.1991391 -0.3093049 0.44409746 -0.26059452 -0.380381 -0.38277704 -0.10159245 0.15575384 -0.9068062 0.41086608 -0.045639653 0.3762966 -0.055640753 -0.06280632 0.30445307 0.543172 0.13990483 -0.30136004 0.20894063 -0.0044758585 -0.04798487 0.6055763 0.10675873 -0.04706169 0.27975687 0.062001567 0.095419474 -0.11588735 0.041562535 -0.56240845 0.34953335 0.016624153 -0.07357967 0.33913654 0.1930491 0.7896715 0.042027183 0.32049537 0.04466172 0.09744138 0.05784861 -0.045996495 0.025862968 -0.312302 0.16807082 0.33608517 -0.19350904 0.45384198 0.5387678 0.07891955 0.23639059 0.20934726 -0.0047107693 -0.25936538 -0.21641272 -0.17119515 0.067545325 0.4561508 -0.5543565 -0.0049528414 0.31115943 -0.50724393 0.36995083 0.29455584 -0.04309778 -0.253504 0.34350282 0.27775615 0.0018529019 0.5967573 0.3277604 0.12620622 -0.07764986 0.39660683 -0.33456206 0.12069121 -0.13196567 0.4128312 0.24020988 -0.092123136 0.21778233 0.028183328 0.45153353 -0.34942222 -0.08606865 0.32133603 0.2239951 -0.04850175 -0.7109155 -0.22343372 0.024164796 -0.047630772 0.035846666 0.17437105 0.0021925361 0.57821375 0.6660057 -0.01937628 0.07103607 -0.09769716 -0.19781868 0.41836235 -0.39319637 -1.1341715 -0.44443077 -0.6151029 -0.2131096 0.11319541 -0.12753183 0.06407148 0.16242288 0.0764241 0.18565567 0.33600727 -0.16720724 0.09658147 -0.25125808 0.37530428 0.14549252 0.004636592 -0.12573913 -0.035402603 0.23881802 0.72010887 0.18734004 0.16532087 0.32895336 0.06813341 0.06861252 -0.18612085 -0.1018366 0.53866893 0.2775717 -0.12110624 0.071761005 -0.021395277 0.51699525 0.11341067 -0.29140246 -0.027880922 0.037079502 0.52840513 -0.26103258 0.8304183 0.064627424 -0.05240864 -0.10291457 -0.09670369 0.23963577 0.02949767 -0.007089557 -0.7004741 0.17518368 0.45456398 -0.55569935 -0.31056488 0.48968878 -0.22135784 -0.24455471 -0.17629601 -0.025063552 0.18536419 -0.044590034 -0.12898462 0.016961414 0.217198 0.16860245 -0.84866947 -0.04116312 0.32769546 -0.08150556 -0.20172954 0.43410096 -0.14113297 0.16244347 0.17504254 0.016758945 0.24056487 0.35979524 0.21312508 0.43413746 -0.21098436 -0.17134467 -0.5088474 -0.015383375 -0.45334664 -0.9258789 -0.5427333 -0.021808166 0.3474618 0.29241526 -0.07633585 -0.35990176 0.13658033 0.5807119 -0.25505924 0.048074614 0.45707607 0.2676997 0.35666883 0.47051942 0.32995403 -0.8898719 -0.06718516 -0.3604936 0.16603824 0.09056755 -0.4871508 -0.07583917 0.39905939 0.63115233 -0.026256705 -0.48204917 -0.34322315 -0.014623476 -0.058878783 -0.05119715 -0.08423701 0.014911326 -0.5429349 0.14944759 0.1838517 0.002731151 0.09094183 0.53502536 0.41634306 0.38413483 -0.17271402 -0.046984244 0.025869206 0.025863955 0.06440823 -0.07722524 0.47281128 -0.5972357 0.023245312 -0.6628204 0.5464965 0.2111007 -0.25470355 -0.015152027 0.61999744 0.06840459 0.12778531 -0.286573 0.3387192 0.5413791 -0.16381136 -0.30596516 0.19274583 0.13051544 0.3058371 0.06041567 0.43152577 0.15574744 -0.0969816 0.041582763 0.38487676 -0.595229 -0.02851222 0.36353514 0.19502799 -0.22851282 0.058359552 -0.43818164 0.06366394 0.00045644684 0.24254075 -0.09130916 -0.83139956 0.13550624 -0.22260496 0.2704648 0.005975013 0.51713514 0.61774695 -0.037357695 0.6250125 0.087592386 -0.107653506 -0.014113768 0.039321415 0.08762306 0.20433673 0.07826432 -0.078539394 0.7800068 -0.231211 -0.06662424 -0.016314842 0.053251073 0.30540553 0.13443105 0.08012123 -0.029058062 -0.80033386 0.12551738 -0.44277903 -0.030404393 0.21725239 0.33654758 0.10199857 0.51103175 -0.2859659 0.40669826 0.21153648 0.11662997 0.29891282 0.3278657 -0.030318683 0.03294648 0.041944314 0.05116464 -0.17006081 0.035580907 0.18750158 -0.17163655 0.3346712 0.23296084 0.18956365 0.13317445 0.71059537 -0.48329633 0.007668923 0.27155328 0.15520264 -0.2744063 -0.079883195 -0.9819601 0.0029670186 0.009094362 0.13837594 -0.030008025 0.028572276 -0.051224876 0.36275783 0.63218206 -0.24383354 0.06658158 0.13600181 0.26119906 0.633322 0.87625384 1.2273166 0.50828445 0.35255334 0.8845058 0.15440744 0.2944746 0.37721294 0.08012667 0.31046346 0.20983368 0.6408971 0.43537575 0.64654005 0.5981686 0.069056034 0.48913524 0.23401763 0.22573926 -0.20939171 -0.17495687 0.100860216 0.29515532 -0.12708057 -0.0013184863 -0.114895314 0.4816183 1.0793645 -0.09597864 -0.4263918 -0.46263698 -0.41862622 0.48118198 -0.5047089 0.116913386 -0.4518547 0.41714185 -0.49232894 0.24932693 0.67784274 -0.55269665 -0.0888021 -0.19098713 0.45181298 -0.22850774 -0.25402611 0.27590272 0.63144463 -0.17963901 0.08520546 -0.20713034 0.49357557 -0.19711383 -0.2423621 -0.40695417 -0.24140406 -0.30233368 -0.5582431 0.4558552 -0.29915276 -0.13089529 -0.27766153 0.22286844 -0.34660876 0.56608 -0.47790036 -0.20169993 0.26330703 -0.023227535 -0.2652005 0.53220224 -0.2073058 0.60697514 -0.3629322 -0.21627377 -0.42522305 -0.26533234 -0.2870906 0.38031694 0.58027387 -0.069521695 0.51445556 -0.42568892 0.19138731 -0.07032479 0.08424988 0.6139328 -0.4852824 -0.1656271 0.23004949 0.16340028 -0.09928066 0.5105912 0.40687397 -0.15550418 0.025736837 -0.49032214 0.34885097 0.36961335 -0.16816461 0.58051646 -0.3039819 -0.2266626 0.59593815 -0.50771105 0.10660808 0.1075446 0.09923577 -0.15748756 0.39278966 -0.2246756 0.59581345 0.54720145 -0.40421876 0.4157033 0.04862285 0.29310054 -0.97172934 -0.30241978 -0.5286709 0.3295642 0.4812337 0.25578216 -0.20955572 0.30044135 0.11795806 0.42238346 -0.4791159 0.15190104 -0.22791913 -0.15489314 -0.47149435 -0.6015631 -0.22712484 -0.24318823 0.3006145 -0.31896952 0.24375676 -0.45229638 -0.23624814 -0.3814058 0.09051063 -0.54617286 0.6662134 0.2742009 0.05718981 0.005777632 0.52142763 0.30257833 0.40601054 0.20407605 -0.40603715 -0.614896 0.14260995 0.7618788 0.020439586 -0.09797386 0.057493087 0.49599215 0.3056954 -0.44036013 -0.009792363 0.3658159 0.024191922 -0.021258729 -0.6387456 -0.41896 -0.14411223 -0.1767792 0.16638634 0.35373655 -0.08797423 0.023405697 -0.23232615 -0.04061007 0.73520386 0.37805095 0.048282377 0.1051269 -0.039115254 -0.37471715 -0.3273581 0.03074579 -0.29939792 0.4786281 0.035263844 