#ifndef WEIGHTS_VITIS_H
#define WEIGHTS_VITIS_H

#include <ap_fixed.h>

// Auto-generated weights file for Vitis HLS CNN
// Total weights: 5738

typedef ap_fixed<32,16> fxp;

#define NUM_WEIGHTS 5738

const fxp weights_array[NUM_WEIGHTS] = {
      0.21812260,   0.13784637,   0.17291455,   0.24456608,  -0.15976009,   0.26131848,   0.13221799,   0.23501164,
     -0.14940721,  -0.42713392,   0.33061054,   0.33209065,   0.08148796,  -0.26387587,  -0.75924060,   0.24609676,
      0.31036422,  -0.16676018,  -0.56866680,  -0.54487440,   0.12633933,  -0.13576807,  -0.37262550,  -0.21941426,
     -0.15032442,   0.15016994,  -0.26176400,  -0.37208894,  -0.49434840,  -0.07412851,   0.34334950,   0.06671994,
     -0.66296643,  -0.34783400,  -0.53811370,   0.17491347,   0.56309600,   0.17203666,   0.14741820,   0.03759558,
      0.04506034,   0.42276266,   0.59594320,   0.26731038,   0.27689650,  -0.06347442,  -0.12860270,  -0.05225664,
      0.21367685,   0.02816756,  -0.21817240,   0.06580527,  -0.06407942,   0.07570181,   0.17209144,  -0.29742834,
      0.12203677,   0.08184383,   0.28899503,   0.20526157,  -0.09312582,   0.04771279,   0.06376802,   0.52021503,
     -0.26573170,   0.14753075,   0.09455804,   0.08929867,   0.36987978,   0.26227167,   0.04869456,  -0.01823707,
     -0.03219631,   0.11987747,   0.57699580,   0.43863904,   0.38842890,   0.05842377,  -0.18005270,  -0.20644120,
      0.20182395,  -0.42146400,  -0.58680870,  -0.27740398,   0.19386440,  -0.73489030,  -0.57553300,  -0.14473228,
      0.18855503,   0.28326565,  -0.27772610,   0.20767279,   0.31223834,   0.33224714,   0.08092303,   0.35426995,
      0.18721747,   0.14769623,   0.06887691,  -0.13089053,   0.01306510,  -0.07082843,  -0.01788193,  -0.20545253,
     -0.10203769,  -0.25237435,  -0.01503702,   0.07382916,  -0.04444486,  -0.60573864,   0.09721623,  -0.06433664,
      0.11600665,   0.22286384,   0.31821110,   0.11561292,   0.19473785,  -0.02896277,  -0.11995763,   0.07403480,
     -0.14482160,  -0.09478812,   0.06317636,  -0.34475150,   0.04510918,   0.17614509,   0.03457455,   0.06744121,
     -0.33479956,  -0.05234965,   0.06378874,   0.15940303,  -0.07474605,   0.04107007,   0.09473307,  -0.04898491,
      0.15248847,   0.07198972,  -0.03892259,  -0.20360160,  -0.07908925,  -0.27272370,  -0.43464217,  -0.28546830,
     -0.27123365,  -0.08678318,   0.04504062,  -0.53875470,  -0.28669244,   0.06823506,   0.31641883,   0.03703968,
      0.31751710,  -0.81028265,  -0.26091808,  -0.00161961,   0.10835150,  -0.06210091,   0.10975929,  -0.12289839,
      0.05329495,  -0.06290629,   0.05453955,   0.15257540,   0.08775788,  -0.10027099,   0.09502948,   0.05010034,
      0.47420716,   0.15813494,  -0.13502730,  -0.24146016,  -0.20035607,   0.57067130,   0.31850046,   0.07191099,
     -0.00296918,  -0.39036930,  -0.29059172,  -0.10687273,  -0.07910766,   0.06640550,  -0.00062259,  -0.05943252,
     -0.04834349,   0.19568707,   0.07285222,   0.22660883,   0.05681988,   0.05412354,   0.32227236,   0.00911516,
      0.25462785,  -0.12431321,  -0.06021359,  -0.14337021,  -0.21916656,  -0.11198226,  -0.26572365,   0.05626614,
     -0.23650378,  -0.18484634,  -0.29995784,  -0.84632420,  -0.24046206,  -0.04979901,  -0.16559057,  -0.10819191,
      0.03234220,   0.01338117,  -0.17582175,  -0.22013354,  -0.06249090,   0.08084267,  -0.34138843,   0.29665710,
     -0.13810612,  -0.01153248,  -0.13369775,  -0.77388513,   0.04213580,   0.11577993,  -0.18919583,   0.13192102,
      0.07470442,   0.16529094,   0.32153827,   0.03975800,   0.16081461,   0.07312308,  -0.07724554,  -0.36106950,
     -0.38889435,  -0.37555760,   0.01021612,   0.19791820,   0.19146650,  -0.05729635,  -0.15223686,  -0.10961232,
      0.01822175,   0.27658775,  -0.07428012,  -0.17733192,   0.08258928,  -0.21701390,  -0.16099340,   0.06993206,
     -0.21980913,   0.31554258,  -0.30951196,  -0.10445130,   0.06409854,  -0.01701862,   0.05557003,  -0.07566605,
      0.11297281,   0.00943328,   0.03683349,   0.26968518,   0.11043799,  -0.37403136,  -0.54426324,  -0.01615819,
     -0.17742145,   0.22688565,  -0.06873909,  -0.37008077,  -0.01176321,  -0.25229576,   0.21527563,  -0.02436264,
     -0.01612714,   0.07543606,   0.01099636,   0.32232022,   0.27177665,   0.20876884,   0.17258420,   0.21941464,
      0.11941120,   0.08676251,   0.31151757,   0.14736305,  -0.11352266,   0.14638324,  -0.26385555,   0.11891679,
      0.06388412,  -0.11311350,   0.27583800,  -0.36484635,  -0.17796293,   0.19495124,   0.00248099,   0.05148428,
     -0.39402816,  -0.14080982,  -0.10771227,   0.17294833,   0.34899586,  -0.10683715,  -0.06011698,  -0.04153100,
     -0.06211176,  -0.15937951,  -0.07661174,  -0.09883425,   0.07695411,  -0.25904850,   0.12042195,   0.15794902,
      0.24140711,   0.34674922,   0.01425838,   0.13479806,   0.08586463,   0.11167891,   0.10388279,  -0.40268055,
     -0.41387564,  -0.33429460,  -0.37198576,  -0.44209632,  -0.34838063,   0.02485908,   0.14193156,  -0.17907041,
     -0.44415727,   0.12825890,  -0.00037472,  -0.02650137,  -0.24245803,  -0.01770327,   0.16783792,   0.14272770,
      0.15810423,   0.03579361,   0.01766770,   0.18106203,   0.18768972,   0.35586190,  -0.15772772,  -0.42464110,
      0.16546302,   0.29625103,   0.21895723,  -0.32053623,  -0.39010528,   0.23625225,   0.13232064,   0.11034433,
     -0.02100182,   0.15092374,  -0.14430872,   0.01075310,  -0.00975643,   0.12127721,   0.09978742,   0.09002459,
      0.23038097,   0.34920722,   0.22092529,   0.13767579,   0.01539961,  -0.01312679,   0.11903745,  -0.12039256,
     -0.34267807,  -0.42829950,  -0.54711825,  -0.40575090,  -0.37474996,  -0.44992268,  -0.38273870,  -0.21385731,
     -0.03192232,   0.13294657,   0.04921648,  -0.15131497,  -0.07719525,  -0.14842625,   0.04098339,   0.05249293,
     -0.08311784,  -0.00632146,   0.05385421,   0.29955130,   0.17906790,  -0.37035695,  -0.32484698,   0.03903727,
      0.19078206,  -0.02430471,  -0.26577505,  -0.34587553,  -0.07057650,   0.57407516,   0.63209840,   0.01734414,
      0.25449076,   0.12916490,   0.27498382,  -0.07150674,  -0.21218474,  -0.39367086,   0.02840625,   0.07316627,
     -0.02514209,   0.20353217,   0.09579628,   0.38103625,   0.23644315,   0.23726982,   0.10643694,   0.16336249,
      0.49538955,   0.21662223,   0.09627540,   0.08973299,   0.37453926,   0.17582051,   0.17675708,   0.11749281,
      0.13473750,   0.04869477,   0.14165883,   0.00988241,  -0.06504332,   0.24206805,  -0.14477459,  -0.28388527,
     -0.23520910,  -0.40248853,   0.00401914,  -0.53396690,  -0.23611020,  -0.18562400,  -0.19555680,  -0.26287420,
     -0.46294454,  -0.32504850,  -0.26258934,   0.07357686,  -0.15673085,  -0.39829840,  -0.06198262,  -0.02988318,
      0.08215807,   0.06962545,  -0.10121888,   0.01036951,  -0.01254408,   0.05591094,  -0.47685320,  -0.28547812,
      0.02098727,   0.05968274,  -0.28004923,  -0.11912420,   0.03983705,   0.05676527,   0.16275750,  -0.15439276,
     -0.32287650,   0.18818630,   0.11050074,   0.11631166,  -0.03838754,  -0.00981181,  -0.00575957,   0.13379145,
      0.17094521,  -0.06851470,   0.04065433,   0.15105315,   0.31332776,   0.13442618,  -0.06590337,  -0.44218100,
      0.06591041,  -0.07893781,  -0.00926686,  -0.64032780,  -0.16791168,   0.04452408,   0.01428731,  -0.12572889,
     -0.41234073,   0.04327868,  -0.17021771,   0.04998563,  -0.30029753,  -0.12295806,   0.04230659,  -0.14369440,
     -0.21352395,  -0.52497790,  -0.04141799,   0.26036793,   0.02502605,  -0.16603516,   0.04702630,   0.01959324,
     -0.14665157,  -0.02917907,  -0.05421109,  -0.05345076,   0.11778580,   0.03248555,  -0.39434218,  -0.24462453,
     -0.31704783,   0.05685163,   0.17231132,  -0.23895980,  -0.24126232,  -0.28412482,  -0.05711682,  -0.28454813,
     -0.20088159,   0.03077430,   0.00289421,  -0.07068253,  -0.12406619,  -0.01971182,   0.13161355,   0.06508015,
     -0.02418333,   0.05054352,   0.02198059,  -0.14849137,  -0.05263784,   0.11847629,  -0.24464513,  -0.00264995,
      0.34510472,  -0.18057753,  -0.15167037,  -0.24774899,  -0.27828848,   0.46640646,   0.24417698,  -0.07886609,
      0.25922770,  -0.29293147,  -0.23707630,   0.25079846,  -0.10379259,   0.00075543,  -0.15069660,  -0.22932643,
     -0.24559121,  -0.12185253,   0.20599590,   0.21299430,   0.14007725,   0.05877176,  -0.00071973,   0.13523652,
      0.36000383,  -0.11191937,  -0.11917768,  -0.11938076,  -0.23408855,   0.14125880,   0.00106667,  -0.16764620,
     -0.05178879,  -0.24475159,  -0.07162826,   0.10990690,  -0.01052741,  -0.09576675,  -0.01782473,  -0.11494470,
     -0.10748407,   0.03284668,  -0.19459133,   0.02468520,   0.04118851,   0.22913124,   0.29049146,   0.07060368,
      0.05487429,  -0.09883998,  -0.24639358,   0.42424030,   0.02816354,   0.07765882,  -0.10649437,  -0.52838950,
     -0.02753978,   0.21369465,   0.34045315,   0.14561653,   0.07903046,  -0.06728544,   0.23653610,   0.49190610,
      0.36527970,   0.35943162,  -0.08783551,  -0.15880898,  -0.26142904,  -0.28504610,  -0.49265600,   0.00040329,
     -0.26690760,   0.34740900,  -0.01254196,  -0.03932509,  -0.26819935,  -0.11370300,   0.02304375,   0.10057347,
     -0.25510564,  -0.43880758,   0.07455973,   0.04069193,   0.48525783,  -0.17072721,   0.08569973,   0.24765284,
      0.03430800,   0.45542383,  -0.35906732,  -0.11033761,   0.04498139,  -0.19855951,   0.15873124,   0.31869236,
      0.43132377,   0.28553215,  -0.07130500,   0.07231604,   0.24443313,   0.04235812,  -0.40980540,  -0.08776280,
     -0.17406848,  -0.26872063,  -0.20001443,  -0.19451453,  -0.21395253,  -0.17501715,  -0.16584720,  -0.01363061,
      0.05412808,  -0.47212347,  -0.07346043,  -0.05422641,   0.24362199,  -0.12752314,   0.20035325,   0.19854379,
      0.30791476,   0.25715490,  -0.08302562,  -0.00480622,  -0.15233351,  -0.35466582,  -0.14362141,  -0.20981005,
     -0.13062128,  -0.08364565,  -0.27021617,  -0.08618405,   0.09113858,  -0.39592505,  -0.21438432,  -0.04547073,
      0.07856297,   0.21707913,  -0.04282510,  -0.04222793,   0.01119059,   0.00653233,  -0.04906755,  -0.23673972,
      0.11466768,   0.15312943,   0.07871914,  -0.09730182,   0.04198969,  -0.08006391,  -0.01776006,   0.15577821,
     -0.24291573,  -0.01539782,  -0.04243102,   0.18040857,   0.54621804,   0.41032970,   0.04563927,   0.10470244,
      0.23833384,   0.09683407,   0.03550972,   0.22298038,   0.23510040,  -0.24967721,  -0.42277470,  -0.20420563,
     -0.17896947,  -0.03923675,   0.00760763,   0.09520821,  -0.03235677,  -0.01361440,   0.06503581,   0.22845851,
      0.13523635,  -0.36910683,  -0.07611702,  -0.14562878,  -0.22176471,  -0.09176645,  -0.24631704,  -0.04491584,
      0.01922553,   0.01188378,  -0.11124435,   0.27945620,  -0.00429242,  -0.08639804,  -0.02208557,  -0.18493395,
      0.00138627,   0.19877793,  -0.14489281,   0.00501026,  -0.04877776,  -0.15715398,   0.20030801,  -0.19893163,
     -0.23170264,  -0.30815157,  -0.14474976,  -0.04865469,  -0.19460481,  -0.22015420,   0.07626486,   0.25328192,
      0.16666286,   0.06425781,   0.30168602,   0.28854270,   0.27625504,   0.23843478,   0.00723241,   0.15747227,
      0.26333390,  -0.25840032,  -0.21823783,  -0.16388185,  -0.25526318,  -0.08572046,  -0.21211370,   0.03174381,
      0.17422989,   0.22184774,   0.30234918,  -0.04160934,   0.25449055,   0.17827484,   0.34356937,   0.12885496,
     -0.01687206,   0.04306874,   0.01987762,   0.09514350,   0.08196005,   0.10664227,  -0.25683933,  -0.32263902,
     -0.38627842,  -0.28148875,  -0.28282920,   0.03352697,  -0.03969178,   0.01304555,   0.24356076,   0.16734037,
      0.07192001,   0.00951561,   0.10034641,   0.23406072,  -0.01896722,   0.14564012,  -0.07365983,   0.03154116,
     -0.09565785,   0.16093259,   0.03115354,  -0.08354619,  -0.33193710,  -0.20797765,   0.33804864,  -0.15957795,
     -0.19399275,  -0.07305536,  -0.20869717,   0.10469977,   0.04291353,  -0.02300602,  -0.02848482,  -0.04094452,
     -0.42166138,  -0.05587892,  -0.24030031,   0.20873640,   0.28598902,   0.22336400,  -0.32422403,  -0.87619370,
     -0.87636966,  -0.69091230,  -0.16401793,   0.00768129,  -0.10148702,  -0.25595486,  -0.59269290,  -0.56782913,
      0.32962167,   0.26050502,   0.19317001,   0.29783478,   0.17399313,   0.06139907,   0.22459084,  -0.00876152,
      0.03958563,   0.00078482,  -0.40298830,  -0.26537064,  -0.03699576,   0.14856586,   0.10232279,   0.09790750,
      0.39759302,   0.17702779,  -0.47523690,  -0.19144744,  -0.13378957,   0.22805280,   0.39970866,   0.29871354,
     -0.00994667,  -0.00890961,   0.18280625,   0.15141542,   0.21606383,   0.22719015,   0.04400072,   0.01104851,
     -0.02754168,   0.15181856,   0.23460463,  -0.29652822,  -0.31791115,   0.14037104,   0.14451827,   0.02584686,
     -0.17680229,  -0.40511006,  -0.35741530,  -0.29013646,  -0.33890927,  -0.19076465,  -0.06687566,  -0.07210957,
     -0.24402137,   0.00096233,  -0.01032040,   0.24693255,   0.16369192,   0.10084884,   0.08446613,  -0.19121422,
     -0.01156729,   0.00997869,   0.16954827,   0.39779900,   0.11212704,   0.05278134,  -0.12244843,  -0.12772056,
      0.01210939,   0.59327870,  -0.05599976,  -0.41852686,  -0.28670900,   0.20676258,   0.34879060,   0.02505930,
     -0.20693940,  -0.35194117,  -0.24650465,   0.29017204,   0.02190487,  -0.01986883,   0.10906405,   0.02413336,
     -0.62810415,  -0.39800096,   0.21167028,  -0.02032261,  -0.52654344,  -0.30563942,  -0.36662552,  -0.12669030,
      0.18797797,   0.09011479,  -0.09626184,  -0.09642784,   0.08402570,  -0.38779080,   0.22211677,   0.09621809,
     -0.46221450,  -0.23779505,  -0.06797434,   0.35127935,   0.01183375,   0.06301678,  -0.12191318,   0.13155268,
      0.06869511,  -0.15462233,   0.26717266,  -0.37874678,  -0.04275409,  -0.24023889,  -0.14501229,  -0.06924776,
      0.13090737,   0.11272131,  -0.17312740,   0.30041742,   0.12403467,   0.11852091,  -0.01020480,   0.05581779,
      0.07770613,   0.31249943,  -0.14589448,  -1.33257090,  -0.40873453,   0.55216837,   0.51150420,  -0.97711957,
      0.39006013,  -0.12606674,   0.74258590,   0.27233467,  -1.19977720,   0.14498578,  -0.27861157,   0.35952437,
     -0.39406908,  -0.07288767,   0.72865367,  -0.04242085,  -0.26636702,   0.28501928,  -0.21722786,   0.53144944,
     -0.41019620,   0.11950020,   0.02727724,  -0.31383047,   0.68642384,   0.55853760,   0.23975250,  -0.04365564,
     -0.58604570,   0.06278250,  -0.03172334,  -0.16143082,  -0.01191884,  -0.48290092,  -0.57103100,   0.21507692,
      0.05379233,   0.17722285,   0.10462105,  -0.63138974,   0.39504690,  -0.51713980,   0.04809613,  -1.23392720,
     -1.20324200,  -1.11042830,   0.19184170,   0.18446848,   0.03959499,   0.47774127,   0.05754954,  -0.21886712,
     -0.62167990,  -0.55587880,   0.14001925,  -0.60092800,   0.04912796,   0.22132784,   0.01785617,  -1.48748160,
      0.19919388,   0.20621110,  -0.02799647,  -0.82379820,  -0.23794413,   0.53004766,   0.34977704,  -0.83683730,
      0.17534363,  -0.34329140,   0.29708130,   0.48054525,  -0.72390366,   0.04101699,  -0.45411740,   0.58795120,
      0.09217916,  -0.03435321,   0.41719930,   0.37311387,   0.00042865,  -0.13062845,  -0.30891904,  -0.18025272,
     -0.42894545,  -0.15981928,   0.44038040,  -0.09939921,   0.05541150,   0.21265455,   0.22028095,   0.20838450,
     -0.27696332,   0.31591982,  -0.35080546,  -0.27281684,  -0.22982271,   0.02301479,   0.25330132,  -0.46093230,
      0.12682283,  -0.07628343,   0.46929708,  -0.45155647,  -0.06396189,   0.14309977,   0.19885762,   0.06660187,
     -0.45874402,  -0.07039607,   0.23036763,  -0.37249577,  -0.56094044,  -0.18090820,   0.36727455,   0.35466543,
     -0.01795973,   0.06025001,  -0.48505002,   0.09997618,   0.27575472,  -0.19061685,  -0.58142656,   0.20488594,
     -0.32502654,  -0.26886824,   0.30427855,  -0.04068159,   0.13675134,  -0.34023646,  -0.17930043,   0.28936094,
      0.45388493,   0.25750780,  -0.34308070,  -0.46266645,   0.38764957,  -0.19201443,   0.11265446,  -0.70856930,
     -0.55958265,  -0.22355716,   0.04466025,   0.08702909,   0.40803167,   0.52523470,   0.03788952,  -0.03127212,
     -0.29273534,  -0.14949928,  -0.08194693,  -0.29095513,   0.16867276,   0.22794591,  -0.26385424,  -0.48628867,
     -0.09429635,   0.13733932,  -0.26100793,  -0.08463953,   0.07277655,  -1.34504130,  -0.10910976,   0.11112460,
      0.13879637,  -0.10766766,   0.18163331,  -0.53834480,   0.10686152,   0.21204506,   0.08566964,   0.01105810,
     -0.06049318,  -0.06625928,  -0.34939660,  -0.31005028,  -0.04882571,   0.17772906,   0.22216143,   0.13429265,
      0.06012217,  -0.44337370,  -0.09556394,  -0.14099358,   0.18494017,   0.11714633,  -0.28883258,  -0.05255407,
     -0.39274570,  -0.01476046,  -0.11607569,  -0.14257024,   0.02791891,  -0.22397208,  -0.06518714,  -0.19299869,
      0.08710761,   0.09438896,   0.29710138,  -0.26316658,  -0.06103811,  -0.02657639,   0.19675069,  -0.08563297,
     -0.74409320,  -0.25602525,  -0.00793286,  -0.04760381,   0.04357396,   0.24753018,   0.10667517,   0.22706951,
     -0.19043726,  -0.13079764,   0.27976698,  -0.29836977,   0.22098802,   0.23401469,   0.02930031,  -0.49674800,
     -0.28294784,   0.07258291,  -0.05625244,  -0.17494927,   0.14230779,  -0.28719825,  -0.01527403,  -0.06262065,
     -0.22361529,  -0.32762066,   0.04702416,  -0.10071438,  -0.13942686,   0.12712027,  -0.96249634,   0.09751821,
     -0.26047972,   0.05881022,  -0.24033670,  -0.27258196,  -0.20238033,  -0.03213292,   0.10087603,   0.23403348,
      0.17579572,   0.13625352,   0.01867592,  -0.17808550,  -0.05397958,   0.19112710,   0.17587468,  -0.26989830,
     -0.14930855,   0.14491239,   0.08609948,  -0.71796125,   0.09818544,   0.16937570,   0.35300416,  -0.39878386,
      0.34527892,  -0.01165502,   0.30782294,   0.01827474,  -0.13647507,  -0.04505423,   0.13499123,  -0.11263520,
     -0.44954482,   0.11325175,   0.37798318,   0.03233275,   0.22817113,   0.23077297,  -0.31966326,   0.29068770,
     -0.24059097,  -0.12046894,  -0.07034891,   0.09515662,   0.55335940,   0.39350390,   0.17731883,  -0.10572761,
     -0.04469490,  -0.01836511,   0.12126686,  -0.06198292,   0.15527518,  -0.71907660,  -0.53629520,   0.14857304,
      0.27525505,  -0.05818015,   0.31589120,   0.17777282,   0.11539777,  -0.19785628,   0.23545533,  -0.15954533,
     -0.01462900,  -1.02090860,   0.18543914,   0.15383057,   0.36825752,   0.83410260,   0.16722750,   0.07620692,
     -0.20295650,  -0.60880710,   0.04277471,  -0.46245270,   0.25636983,   0.10255851,   0.01990961,   0.04067206,
      0.14980318,   0.07178383,  -0.02342123,  -1.18222630,   0.06999144,   0.22597280,   0.18857767,  -1.18421850,
      0.02157334,   0.15186478,   0.52073730,   0.39049473,  -0.24220632,  -0.18280235,   0.09585447,   0.37786764,
     -0.01195778,  -0.03802783,   0.47198182,   0.04855084,  -0.06056531,  -0.01804686,  -0.88729644,   0.05849896,
     -0.40046105,  -0.29946044,  -0.05263827,   0.04094692,   0.23741207,   0.12596998,  -0.06738873,   0.18730776,
      0.10543100,  -0.40122470,  -0.23288548,   0.04576326,   0.32009357,  -0.79290130,   0.21911159,  -0.18421134,
     -0.11417685,   0.31572297,  -0.17818625,  -0.29797006,   0.10960016,   0.31846622,  -0.06858066,  -0.00232614,
     -0.15552263,  -0.79746380,   0.35980780,  -0.32951123,   0.13186900,   0.40344158,   0.09193048,  -0.15662307,
      0.16567315,  -0.16252285,  -0.09415195,   0.24760921,   0.05259446,  -0.14788961,  -0.22811040,  -0.70064320,
     -0.46455443,  -0.07190964,   0.11966065,   0.17387162,   0.06387494,  -0.62393403,  -0.34524742,   0.33622319,
      0.30681127,   0.09639592,  -0.18045184,  -0.45858840,   0.33522257,  -0.14654261,   0.10061983,  -0.71021270,
     -0.37799537,  -0.15853469,  -0.10076620,   0.12341509,   0.27007928,   0.50613250,   0.18960346,  -0.07837934,
     -0.24762142,  -0.02532659,   0.14702480,  -0.02172657,   0.09807644,   0.04503790,  -0.04326425,  -0.38917524,
     -0.05483515,   0.15735088,  -0.14861031,  -0.00937340,  -0.11201794,  -0.90568864,  -0.31283462,   0.19494201,
      0.11448932,  -0.07443009,   0.12983227,  -0.30287987,   0.08226769,   0.16296788,  -0.09550109,   0.06769302,
     -0.04239439,  -0.09429022,  -0.64151970,  -0.22946325,   0.07172168,   0.17171085,   0.21578033,   0.02560703,
      0.21686044,  -0.09047647,  -0.08084373,  -0.02340518,   0.04243763,   0.09970834,  -0.07885566,  -0.06128970,
     -0.21527499,   0.00076993,   0.10519900,  -0.04878047,  -0.17870605,  -0.17784947,  -0.08048376,   0.17781991,
     -0.02317040,   0.03376487,   0.04340531,  -0.26266417,   0.00916203,   0.05127724,   0.08308144,  -0.18711430,
     -0.50054306,  -0.20874065,   0.15710200,  -0.06395268,   0.07522858,   0.25528124,   0.01634149,   0.07564513,
     -0.11551364,  -0.16058047,   0.04858227,  -0.33013150,   0.11595418,   0.25045120,  -0.04429544,  -0.25716048,
      0.27094010,  -0.38854740,  -0.11980356,  -0.59264904,   0.04586842,   0.04220575,  -0.25484556,  -0.20203885,
     -0.10996116,  -0.08411580,  -0.02425901,   0.30591267,  -0.26304440,  -0.20469218,  -0.05368340,   0.36585000,
      0.03934606,  -0.11344419,  -0.21930060,   0.06761894,   0.05163777,  -0.03968286,  -0.19680150,   0.24965106,
      0.15656851,   0.11446942,   0.17561482,  -0.10390750,  -0.27264977,  -0.32046464,   0.39660810,   0.01641678,
     -0.34584940,  -0.00824814,   0.09081554,   0.05843577,   0.04332823,  -0.07953503,   0.18612240,  -0.02419084,
      0.02703120,  -0.03037192,  -0.07992884,  -0.34293872,   0.31951290,  -0.08993460,  -0.02146184,  -0.20699193,
     -0.10090528,   0.18091504,   0.07045283,  -0.03314469,   0.09052734,  -0.21788198,  -0.07067441,   0.15368178,
     -0.04000410,   0.15534154,   0.01849275,   0.15102762,   0.09753078,   0.16855739,   0.17118666,  -0.26548433,
      0.48524156,  -0.24592109,   0.24653877,  -0.39451918,   0.42385927,  -0.16254747,  -0.49968415,   0.14843710,
      0.33232910,   0.32317692,  -0.05052383,   0.56008580,  -0.27034158,   0.34205785,  -0.02392023,   0.47962925,
      0.51138014,  -0.66503525,  -0.32046947,   0.30754226,   0.15706494,   0.32756130,  -0.06040294,   0.01812702,
      0.42685850,  -0.37382165,  -0.16475804,  -0.07277229,  -0.08277734,  -0.17094046,  -0.27547884,   0.32819003,
      0.07234045,  -0.04336461,  -0.03844423,  -1.01995920,   0.24780019,   0.12615393,   0.19400163,  -1.04038600,
     -0.10657282,   0.18365470,   0.19045559,   0.23043846,  -0.17559512,  -0.35313538,   0.02749917,   0.28778560,
     -0.05247161,  -0.04170155,   0.51068500,   0.16141468,  -0.79530550,  -0.12531433,  -0.65582097,   0.11975924,
     -0.96965086,  -0.12848330,   0.24124625,  -0.04641773,   0.26911634,   0.10861669,   0.07759644,   0.08276822,
     -0.31751585,  -0.13266188,   0.00167581,   0.22866186,   0.12515235,  -0.49338830,  -0.04102295,   0.51548540,
     -0.08609786,   0.18559727,  -0.16939750,  -0.80393565,   0.38501860,   0.12481845,  -0.12495366,  -0.16541089,
      0.01384956,  -0.05568439,   0.06809641,  -0.16756764,   0.05068811,   0.12582340,   0.00507659,  -0.11819310,
      0.27785578,  -0.04234371,   0.06572925,   0.10825128,  -0.03203758,   0.07193824,   0.16020796,  -0.21897088,
     -0.20919226,  -0.17281695,  -0.03147645,   0.14057484,   0.06673013,  -0.38031203,  -0.37280980,   0.33906147,
      0.02907163,   0.21183366,  -0.60774827,  -0.42247507,   0.36977420,  -0.15106400,  -0.19533436,  -0.15538712,
      0.03926410,   0.15372020,  -0.23058693,   0.13984096,   0.08157567,   0.01623295,  -0.03591162,  -0.04033393,
     -0.03923167,   0.00187129,   0.18522485,  -0.02049506,   0.02970833,   0.25748524,   0.25407374,  -0.09324869,
      0.01491052,   0.11393179,  -0.07077295,  -0.06025133,  -0.11572280,  -0.71458465,  -0.32783303,   0.07483351,
      0.10536100,  -0.16787356,   0.07585571,  -0.08629841,  -0.07711601,   0.30415750,   0.04108158,   0.17769350,
     -0.02193546,  -0.23513160,  -0.73395014,  -0.03411059,   0.00316528,   0.18118530,   0.14029914,   0.13495228,
      0.21564260,   0.17620600,  -0.16159558,  -0.00714637,   0.00444701,   0.10354225,  -0.08457334,  -0.02222984,
      0.01939097,  -0.10489421,  -0.06061001,   0.04497272,  -0.13970938,  -0.18608521,  -0.22634898,   0.18441180,
     -0.02476627,   0.00919846,  -0.01889152,  -0.00538793,   0.08100281,   0.12090976,  -0.11433318,   0.27542335,
     -0.01237555,  -0.02547157,  -0.18021435,   0.01317560,   0.10651468,   0.18701723,   0.07134117,   0.09098095,
      0.22383125,   0.04523704,   0.15843387,  -0.21833412,  -0.19785990,   0.10722015,   0.08781137,   0.01117716,
      0.36505770,   0.01686837,  -0.02958377,  -0.18106142,   0.05002224,   0.14854395,  -0.14437504,  -0.11131176,
      0.00849511,   0.07488930,   0.17288445,   0.50862277,  -0.04295525,  -0.19623497,   0.16903605,   0.19694440,
      0.33070514,   0.07643707,  -0.12694874,   0.22064349,   0.00772389,  -0.11180593,   0.00958532,   0.18593930,
     -0.00278084,   0.17406157,  -0.02492271,   0.03945422,  -0.06889155,  -0.21447958,  -0.39766812,   0.24778315,
     -0.18911792,   0.09510165,   0.08146023,   0.14883600,  -0.04233480,  -0.10607107,  -0.00693152,   0.14720431,
      0.06859136,   0.10721490,  -0.07102516,  -0.48507230,   0.29797104,  -0.03049782,  -0.01365142,  -0.10460590,
     -0.08944997,  -0.00260964,  -0.00198132,  -0.05952862,  -0.08351920,  -0.12270947,   0.05331259,   0.08158708,
      0.00225759,   0.14756456,   0.00206701,   0.08389024,   0.04744365,   0.04989598,   0.11212460,  -0.06893498,
      0.65665340,  -0.05264024,   0.16117623,  -0.73566970,  -0.51018530,  -0.17356844,  -0.48911210,  -0.10116234,
      0.34870216,   0.09439504,   0.10129218,   0.76710874,  -0.50378380,   0.25786640,   0.18596955,   0.38883397,
      1.04004850,  -0.56388324,  -0.41123980,   0.03810555,   0.08156205,   0.05150125,   0.17306837,  -0.52122754,
      0.45181683,  -0.31393924,  -0.20532500,  -0.05283453,  -1.15195510,  -0.92355174,  -0.38105747,   0.92777200,
      0.18271437,  -0.10202809,  -0.15060125,  -0.73301417,   0.15211162,   0.23641856,   0.40938930,  -0.55735874,
     -0.20910959,   0.10801378,   0.19630740,   0.45802572,  -0.05777561,  -0.22559088,  -0.01743218,   0.16613199,
     -0.30707347,   0.03598276,   0.29000583,   0.11495362,  -1.16454610,  -0.49043778,  -0.76811840,   0.03019397,
     -1.23540040,   0.16190098,   0.15732785,   0.22543874,   0.14286993,  -0.10402475,   0.23206200,   0.16511291,
     -0.09649690,  -0.26792270,  -0.05437496,   0.27818042,   0.13878877,  -0.81874466,   0.13082084,   0.39440823,
     -0.11727942,   0.12719998,  -0.57735580,  -1.00129450,   0.46772817,   0.05285704,  -0.20724301,  -0.14927220,
     -0.03750797,  -0.03452557,  -0.09560155,  -0.05624216,  -0.08983863,  -0.13614011,   0.10287851,   0.14969419,
      0.20810808,   0.06707984,   0.06524017,   0.16583808,  -0.09407976,  -0.15233725,   0.21517187,  -0.11920027,
      0.13597025,  -0.55144740,  -0.10833186,  -0.19585516,   0.02993737,  -0.04299463,  -0.12547445,   0.22116478,
     -0.11440472,   0.20786491,  -0.58180964,  -0.09996404,  -0.27680773,  -0.03412737,  -0.53566843,   0.06427814,
      0.29998884,  -0.54840820,  -0.07447524,   0.08308664,  -0.15385504,   0.07915855,  -0.27143508,   0.25342366,
      0.27966562,   0.09216399,   0.36110368,  -0.11436259,  -0.30295026,   0.14118424,   0.50616680,   0.06555413,
      0.15155596,  -0.19562285,  -0.08149515,  -0.24583444,  -0.08951299,  -0.45930824,  -0.03166190,  -0.10211147,
      0.08503170,  -0.23669840,   0.10815501,   0.06524987,  -0.16228704,   0.36540520,  -0.12025002,   0.16216433,
      0.11601832,  -0.43977207,  -0.78040100,   0.04705398,   0.12637675,   0.12915951,   0.10355516,   0.19394703,
      0.47061273,   0.08647660,  -0.05782020,   0.00696093,  -0.25156283,  -0.19046657,  -0.00914508,   0.13201995,
      0.24622564,   0.05819103,  -0.14969888,   0.03695914,  -0.20091476,   0.12546824,  -0.72648877,   0.09326296,
     -0.00398255,   0.06958982,  -0.01996008,   0.10207943,  -0.00067907,  -0.22049780,  -0.03577655,   0.30738375,
      0.20857221,  -0.06617615,  -0.09545002,   0.16509440,  -0.05757083,  -0.04451288,   0.29579470,  -0.02806476,
      0.04561906,  -0.13833885,   0.23321302,  -0.07237047,  -0.22747691,  -0.05622795,   0.13234775,   0.15848622,
     -0.24405754,   0.22070380,   0.14616066,   0.10858526,  -0.02718606,  -0.16179883,  -0.07188153,  -0.23544420,
     -0.18477586,  -0.46264917,  -0.06266934,   0.06406692,  -0.13615184,  -0.05119089,   0.22014707,   0.26523197,
     -0.07368450,   0.14697984,  -0.23246040,   0.13788077,   0.19951200,  -0.11094461,  -0.06678820,   0.25793222,
      0.17239363,   0.33321570,  -0.44640723,   0.09674107,  -0.23185267,  -0.37250027,  -0.30460540,  -0.36388823,
      0.38444300,   0.28531232,   0.12878790,  -0.02831728,   0.23729584,   0.32733253,   0.15206702,  -0.14409322,
     -0.29172410,  -0.03627312,  -0.33864492,  -0.02531095,  -0.47139010,   0.08729335,  -0.39370307,  -0.17539040,
      0.09676499,   0.32263625,   0.32798648,   0.09643203,  -0.15825465,  -0.29563470,  -0.03579139,   0.15480368,
     -0.24932665,  -0.10358554,  -0.11974325,  -0.03141617,   0.00576900,  -0.14382209,  -0.05613331,   0.20792049,
     -0.09870419,   0.11279707,  -0.15751046,  -0.17163087,   0.27721545,  -0.82533520,  -0.55747090,   0.11953429,
      0.03207744,   0.23463696,   0.05512478,  -0.12620838,   0.15392262,  -0.30792250,   0.08494746,  -0.27886042,
     -0.08475695,  -0.26205546,   0.13646568,  -0.17507689,   0.09199704,   0.43148294,   0.03407319,  -0.22789155,
     -0.23737328,  -0.86063080,   0.16199267,  -0.42712855,   0.35354838,   0.35757828,   0.08290485,  -0.31830686,
      0.09615529,   0.08799282,   0.02699589,   0.05393925,  -0.25503838,   0.06701024,  -0.00191732,   0.01204247,
      0.16085450,  -0.10728432,   0.08784749,   0.14294401,  -0.24813466,   0.18213290,  -0.78515464,   0.18573922,
      0.14407139,   0.14859174,   0.00564890,   0.02921717,  -0.00952059,  -0.10766116,   0.05893172,   0.07471370,
      0.11217159,  -0.07045856,   0.06493988,  -0.04107733,  -0.02256704,   0.00838466,   0.04702895,   0.15859471,
      0.11267231,   0.09578248,  -0.14558497,   0.05829414,  -0.17568070,  -0.48847060,   0.36246735,   0.16383412,
     -0.06203596,  -0.36238503,   0.04812718,   0.09352954,  -0.05765890,   0.19823764,  -0.14857312,  -0.04272825,
      0.31355327,   0.05612041,  -0.07525343,  -0.74601810,   0.09043673,  -0.24852178,  -0.01030322,  -0.06441922,
      0.17920409,  -0.37979470,  -1.16927430,   0.31490925,  -0.18928884,   0.02853570,  -0.95581424,   0.48280153,
     -0.38404644,  -0.05411548,   0.07140300,   0.02140355,  -0.11167565,  -0.17303352,  -0.34855040,   0.11606951,
      0.32826750,   0.21071678,   0.21848896,  -0.38940510,   0.18329608,   0.01609800,   0.35610690,  -0.39158640,
     -0.96416910,  -0.66187334,  -0.50324553,   0.34590770,   0.18012908,   0.54889625,   0.05109904,   0.04897815,
     -0.18138306,  -0.24803385,  -0.09322830,  -0.40812722,   0.05258979,   0.17400037,  -0.14078316,  -0.60139530,
      0.05202307,   0.08157183,   0.13321303,   0.14349051,  -0.50748240,  -0.06541231,   0.05388615,   0.01424576,
      0.06768073,  -0.17309576,  -0.07355546,  -0.10847721,   0.10463131,   0.00681611,  -0.01495736,   0.16972771,
      0.27427600,   0.23384951,  -0.03578042,  -0.27531930,  -0.03781319,  -0.18283336,  -0.02655958,  -0.43642098,
      0.01571247,  -0.00780722,  -0.58510210,   0.31134980,  -0.14155789,   0.01974800,  -0.42297550,   0.31994858,
      0.05094009,  -0.14165328,  -0.14675929,  -0.11582377,   0.01400478,  -1.04776260,  -0.23345488,   0.24034965,
     -0.11805405,   0.27091914,   0.04728807,  -0.18209736,   0.24908644,   0.02707738,   0.09176136,  -0.41279146,
     -0.14743999,  -0.37568410,   0.28059590,  -0.12369561,   0.07275280,   0.54505740,   0.09818952,  -0.17453440,
      0.00536197,  -0.98882496,  -0.05692860,   0.07072563,   0.10918109,   0.28582835,  -0.05238673,  -0.17614155,
     -0.36908442,   0.15689456,   0.19884287,   0.01107845,  -0.39656810,  -0.05245999,   0.12836671,  -0.26344636,
      0.33886260,  -0.27957946,   0.34759760,  -0.36316937,  -0.15293716,   0.26058587,   0.10372297,   0.33252537,
     -0.13514473,   0.26531768,  -0.31930488,   0.10490959,  -0.07495701,  -0.03556641,  -0.10224767,   0.29727960,
      0.13589269,   0.19437640,  -0.09485371,  -0.28355770,  -0.06845984,   0.24870156,   0.11200916,  -0.18495040,
      0.27641582,  -0.22653978,  -0.38534322,  -0.06036246,  -0.15997803,  -0.00397585,   0.40559340,   0.16552494,
     -0.40438908,   0.13561343,  -0.34876943,  -0.01589791,  -0.11248777,   0.34129056,  -0.37847690,  -0.15868865,
      0.10626158,  -0.14459573,   0.31864530,  -0.43053210,  -0.03306319,   0.21687156,  -0.43881340,  -0.16419990,
      0.39223580,   0.07273775,  -0.12915583,   0.21415007,   0.10828193,   0.20699254,   0.00082720,   0.28891190,
     -0.28482005,   0.10234398,  -0.04539780,  -0.07882319,   0.23566918,  -0.62664540,  -0.66689250,  -0.00458985,
      0.00376133,   0.12898606,   0.05153158,  -0.01883437,   0.14516741,  -0.52607110,   0.04551108,   0.08570823,
      0.10452639,   0.07329317,  -0.08070707,  -0.00677444,   0.22451680,   0.00567038,   0.10266054,  -0.06648321,
     -0.12997061,  -0.41414240,   0.10528743,  -0.39073600,   0.20377272,   0.08131968,   0.23776788,  -0.36050475,
      0.14733270,  -0.14970478,  -0.08231303,  -0.17767273,   0.09087602,   0.00561614,   0.04794216,  -0.16653022,
     -0.08189782,  -0.01946823,   0.29483595,   0.14258105,  -0.08750430,   0.06621455,   0.00401234,   0.15040006,
      0.03119490,  -0.04281846,   0.05637258,  -0.02993954,   0.10197213,   0.05266093,  -0.27492943,   0.08638860,
      0.00003636,   0.06431949,  -0.02725090,  -0.04588324,   0.03479933,  -0.14722012,  -0.02883519,  -0.00319382,
      0.19279489,   0.10962117,   0.12992597,   0.14658828,  -0.09644610,  -0.34949416,   0.28335592,   0.02231949,
     -0.12566751,   0.03500948,  -0.25445607,  -0.14448416,   0.11407782,   0.32303435,  -0.14480561,  -0.08106130,
      0.20659655,   0.20671947,   0.16936001,  -0.62052095,  -0.06876752,  -0.11327796,  -0.04374976,  -0.51178640,
      0.39217760,  -0.44220632,  -0.62317010,   0.32899484,  -0.00677907,  -0.04644676,  -0.75909734,   0.38021407,
     -0.48244670,   0.14228797,   0.01002272,   0.05302150,  -0.05501501,  -0.92744726,  -0.60859597,   0.13976240,
      0.37698707,   0.03503151,   0.06109424,  -0.46672237,   0.33553204,  -0.20721452,   0.01288218,  -0.00707968,
     -0.28467880,  -0.14156373,  -0.73528400,   0.18618174,   0.25464755,   0.18096367,   0.16678503,   0.04085614,
     -0.12303548,  -0.11988191,  -0.02862886,  -0.25991014,   0.08132625,   0.06347930,  -0.02076928,  -0.75173290,
     -0.00625569,   0.25071222,   0.28666902,   0.09245032,  -0.87552655,   0.12224544,  -0.03928091,  -0.07137393,
      0.12735833,   0.13671772,  -0.15321834,  -0.00298672,  -0.06221724,  -0.19232422,  -0.02435755,   0.15779015,
      0.10370096,   0.26589578,   0.03474857,   0.01274437,   0.04129451,  -0.06138951,  -0.07578107,  -0.72325677,
     -0.02762307,   0.00522747,   0.01248565,   0.10505545,  -0.18200688,   0.14503092,  -0.08994043,   0.23246184,
     -0.11934520,   0.02843589,  -0.26225287,  -0.21576189,   0.14693640,  -0.17573291,  -0.09187143,   0.18140120,
     -0.22527914,   0.19305621,   0.02963268,  -0.29523180,   0.06058880,  -0.09552854,  -0.14297602,  -0.28249574,
     -0.16535778,  -0.13671540,   0.22688293,  -0.20242466,  -0.03001502,   0.14738202,   0.06441976,  -0.14778370,
     -0.15799202,  -0.13447441,   0.02978438,  -0.18786554,   0.43790367,   0.24575620,   0.15659516,  -0.18369308,
      0.27883740,  -0.57590556,  -0.00702276,   0.11473618,  -0.15249112,  -0.37634405,  -0.10288484,  -0.17318033,
      0.01676647,   0.27489448,   0.33457875,   0.06318447,  -0.07362431,   0.12887277,  -0.07970499,   0.25895390,
      0.06824630,  -0.36560878,   0.19288287,   0.31920123,   0.15182859,   0.10644513,  -0.14248036,  -0.09215497,
      0.12033410,  -0.05587128,   0.00481338,  -0.09701328,  -0.10827968,  -0.60860180,  -0.09112926,   0.02422978,
     -0.10363721,  -0.01930065,  -0.18200694,   0.00961307,   0.05467320,  -0.20181768,  -0.04051245,   0.18829241,
     -0.15577963,  -0.34393132,  -0.15855412,  -0.02817171,   0.16332453,  -0.06923361,   0.15790692,   0.08367916,
      0.03147825,   0.08252298,  -0.22455170,  -0.51395280,   0.05741535,   0.03433490,   0.15230802,   0.11812397,
      0.14309306,  -0.06416415,   0.22537598,   0.06699134,   0.03602114,  -0.00581350,  -0.22063737,  -0.07767147,
      0.02729509,   0.19707940,   0.11356416,   0.07912818,   0.33600438,  -0.04664110,  -0.71465623,   0.17160168,
      0.03754472,   0.11801333,   0.13040532,  -0.07498220,  -0.00708450,  -0.20115212,  -0.10606283,   0.11712750,
     -0.11305980,  -0.48311138,  -0.81197140,   0.24511454,   0.00892113,   0.06070382,   0.17501827,   0.03885748,
     -0.10682295,   0.22961219,  -0.12014130,  -0.48713276,  -0.06722639,  -0.21337114,   0.10814094,  -0.03082150,
     -0.01586979,  -0.02186939,   0.03036316,  -0.22026198,   0.06165654,  -0.02929234,   0.14981315,   0.03465659,
      0.09703589,  -0.04305235,   0.29168057,  -0.01032580,   0.14172497,  -0.13773525,   0.02764968,   0.11530527,
     -0.07072687,  -0.08297391,   0.16644860,  -0.15194261,  -0.62577915,   0.15561338,   0.04664942,   0.06452651,
     -0.19250606,   0.14198497,   0.04186785,  -0.11297777,   0.25647290,   0.12209626,   0.02932308,  -0.08533520,
     -0.01209520,   0.05991429,   0.13634166,   0.09420908,  -0.17145026,  -0.09052786,   0.29145360,   0.05563428,
     -0.02448788,   0.17385936,  -0.15391502,  -0.26578890,  -0.01425292,   0.26693600,  -0.20961599,  -0.15410511,
     -0.04531923,  -0.07307734,  -0.10326096,   0.10304786,   0.09374725,   0.11123400,   0.07453188,  -0.10871989,
      0.20393643,  -0.04654925,  -0.15515370,   0.23680134,  -0.30502800,  -0.04262889,  -0.15976182,  -0.01206501,
     -0.33871510,   0.14727797,  -0.13029851,   0.06260317,   0.15558429,  -0.69581910,  -0.23873235,   0.27852663,
      0.07390815,  -0.10615319,   0.10491641,  -0.45613710,  -0.08258707,   0.26686174,  -0.08371197,   0.20745093,
     -0.02064309,  -0.08617394,  -0.92755556,   0.15124135,   0.16727163,   0.32682760,   0.25163564,   0.06751856,
      0.38153392,   0.02160634,   0.12158295,  -0.17133929,   0.10065786,   0.05294710,  -0.01789267,  -0.08680531,
      0.05634525,   0.27771345,  -0.06632587,  -0.18354245,  -0.91786120,   0.19047691,   0.03118198,  -0.27377814,
      0.24117017,   0.35676768,   0.34670278,   0.05513739,   0.04128865,  -0.09120125,   0.09378629,  -0.04792404,
     -0.13477977,   0.01312119,   0.07767038,   0.48345768,   0.05870164,   0.13465746,  -0.05001800,  -0.61122906,
     -0.36202812,  -0.74622023,   0.03911963,   0.01645501,   0.16651540,   0.31487830,  -0.06782450,   0.01673860,
      0.15210107,  -0.08392063,   0.03014088,  -0.92396210,   0.41657144,   0.02118625,  -0.23656502,  -0.15624493,
     -0.04176789,   0.14031950,   0.05310722,   0.28695527,  -0.12133808,  -0.04656478,  -0.14497493,   0.32500416,
      0.14018153,  -0.29421860,  -0.20809640,  -0.40837280,   0.00296336,   0.20821133,  -0.05204015,  -0.04781770,
      0.21089070,   0.07068410,   0.27652960,  -0.21823964,   0.18525730,   0.29565418,   0.25161183,   0.07763692,
      0.17911477,   0.03836148,  -0.00529695,   0.25480420,  -0.19240332,   0.10728800,   0.27948174,   0.15250549,
      0.23409764,   0.46078950,   0.33939382,   0.12865070,   0.16799797,   0.22731888,   0.02483567,  -0.36170372,
      0.07536236,  -0.11104394,   0.16716246,   0.14358251,   0.03245901,  -0.10331297,  -0.05145343,   0.02904262,
     -0.24090101,  -0.47272640,  -0.46057767,   0.35782270,  -0.00496909,   0.08742858,  -0.70882850,   0.32664830,
     -0.17459905,   0.14771478,   0.09850001,  -0.07795329,  -0.03937239,   0.03568717,  -0.25579387,   0.03875381,
      0.04358286,   0.02141649,   0.02168627,   0.07478596,  -0.14197530,  -0.19889927,   0.05606857,   0.13724010,
      0.10253029,   0.03585014,  -0.00957449,   0.07056215,   0.07371748,   0.07014728,   0.06311119,  -0.00611895,
      0.06626528,   0.03891019,   0.12676442,  -0.23024116,  -0.08223756,   0.10504749,   0.11142232,   0.04577183,
      0.38860740,  -0.17434467,   0.25501373,  -0.06967644,  -0.50457430,  -0.09563483,   0.07204927,  -0.22065836,
      0.27566907,   0.55445474,   0.33905488,   0.38833162,  -0.18726406,   0.30458865,   0.16573767,   0.13270397,
      0.38287452,  -0.68864596,  -0.06881688,   0.10519196,   0.18569365,   0.13512859,  -0.20593289,  -0.66768430,
      0.10185795,  -0.50774330,  -0.50233510,   0.04324731,  -0.38277350,  -0.63782600,  -0.49053335,   0.50689834,
     -0.54927486,   0.02785946,   0.00489699,  -0.17756969,   0.07510954,   0.03364079,   0.48089860,   0.07878470,
     -0.06155328,  -0.34241468,   0.14780034,  -0.06045212,   0.06533957,   0.30008090,  -0.17868662,   0.01585643,
     -0.63998026,   0.16266166,   0.02709393,  -0.46709722,  -1.15337680,  -0.05261136,  -0.13436857,   0.31949570,
     -0.06579551,   0.29627207,  -0.01123373,   0.01763649,   0.29358130,   0.16465159,   0.39339150,  -0.16952190,
     -0.03154751,  -0.14866862,  -0.10366271,  -0.01229886,  -0.05896649,  -0.22748637,   0.03713096,  -0.03584918,
     -0.12078778,  -0.09017715,  -0.02429896,  -0.01877395,  -0.15856254,  -0.00630387,   0.02949081,   0.18577658,
     -0.03502688,  -0.20264062,  -0.30471194,   0.23594302,  -0.00495521,  -0.08057907,   0.09261905,   0.15796782,
     -0.01864640,   0.16409220,   0.14307795,  -0.15326340,  -0.20157932,  -0.14651316,   0.05405099,  -0.13305391,
      0.11699038,  -0.19711423,   0.06410259,  -0.41363406,   0.14320274,  -0.30964120,   0.30021190,  -0.33735050,
      0.05134785,  -0.23961703,   0.03769010,   0.31419283,  -0.61992810,   0.41856658,  -0.53439850,   0.22517315,
      0.10799401,  -0.22059523,  -0.50514007,   0.13707430,   0.11998665,   0.25292410,  -0.12890367,   0.23324198,
      0.46033967,   0.13686691,   0.04851169,   0.09940091,  -0.27568057,  -0.06856113,   0.20653234,   0.15619965,
      0.06096217,   0.07109774,  -0.10277412,  -0.11980497,  -0.64272470,   0.18301852,   0.22020149,  -0.32850212,
      0.13045971,   0.11491956,   0.10035235,  -0.05106506,  -0.17376955,   0.25098166,   0.02865843,  -0.18194720,
     -0.24096770,  -0.12656471,   0.22895858,   0.11652671,  -0.04749486,   0.14303690,  -0.23929237,  -0.42536090,
     -0.25128287,  -0.98228210,   0.09035130,   0.06637539,   0.13698334,   0.18736427,   0.07106930,   0.10456718,
      0.12241258,  -0.28728694,   0.02181029,  -0.58953714,  -0.12602640,  -0.00692039,  -0.84201974,  -0.21481189,
      0.08895575,   0.34877240,  -0.19643444,   0.13318647,  -0.10951303,  -0.25449830,   0.01134214,   0.20561884,
      0.16152139,  -0.32641202,  -0.19881357,   0.26080415,   0.15687285,   0.17644683,   0.28332287,  -0.56960434,
      0.05028393,  -0.44833192,   0.15330207,  -0.20076765,  -0.41321033,  -0.38041016,   0.04868254,   0.16261345,
     -0.06616881,  -0.00135061,  -0.20295580,  -0.03330240,   0.05375652,   0.07013155,   0.18335088,   0.04703846,
     -0.22777988,   0.05616638,  -0.07362648,   0.10783286,   0.10441840,  -0.24308024,   0.02763837,  -0.05248348,
     -0.00231245,  -0.06380452,  -0.06202782,  -0.00831552,  -0.12664598,   0.00502550,  -0.15950006,   0.21555291,
     -0.23781711,   0.05459427,   0.18640618,   0.14795800,   0.10136809,  -0.28475606,   0.24411194,  -0.14099978,
     -0.02684518,  -0.04589193,   0.18691574,   0.06056807,  -0.12904744,   0.44140220,  -0.41921127,  -0.56252444,
     -0.23476835,  -0.14529115,  -0.31949997,   0.07540332,  -0.50338024,  -0.04663160,   0.49163944,   0.01554329,
      0.00473724,  -0.04499006,  -0.30835107,   0.48300847,   0.28394997,  -0.16915053,  -0.05966140,  -0.01679243,
     -0.10968672,   0.07499272,  -0.06266323,  -0.09790066,  -0.22001970,  -0.55360760,  -0.09720440,  -0.03210102,
     -0.05786915,   0.22744636,   0.13278414,  -0.20053457,   0.42126970,   0.07028540,  -0.18493830,  -0.01617559,
      0.54558690,  -0.01383143,   0.07512718,   0.12724124,   0.00585407,  -0.11521646,   0.52319527,   0.12877838,
     -0.02018875,  -0.03813119,   0.04383741,   0.02282829,   0.30482087,   0.42140436,   0.12586635,   0.11250358,
      0.16524684,  -0.29546067,  -0.72356890,  -0.10966790,   0.34888790,   0.16853547,  -0.30941272,  -0.04102253,
     -0.13399720,   0.09264863,  -0.11927486,   0.00224373,  -0.36301932,   0.09494441,  -0.05293027,  -0.24200780,
     -0.08090756,  -0.20354594,  -0.06574334,  -0.02068734,  -0.38988290,   0.06627297,  -0.36404080,   0.23992871,
      0.17306519,   0.09241848,  -0.12213501,   0.12505625,  -0.16887052,  -0.14376655,  -0.03346999,   0.02895680,
     -0.01883285,  -0.03121437,   0.14568812,  -0.18249418,  -0.22387995,  -0.15504820,   0.23319678,   0.10837773,
      0.25379792,   0.09215776,   0.08248961,   0.19787320,  -0.56529200,   0.00921969,   0.27301753,  -0.05502483,
     -0.08872410,  -0.29250547,  -0.18499546,  -0.09883887,   0.08310222,  -0.00947776,  -0.50201980,   0.29944208,
      0.45449700,   0.27670202,   0.00610565,  -0.38603310,  -0.14429808,  -0.42437816,   0.04446090,  -0.52546470,
      0.18068570,   0.06332926,  -0.14011443,   0.47114325,  -0.27729347,  -0.15793632,   0.02703785,   0.39257190,
      0.04340595,   0.12776284,  -0.03572976,   0.21381094,  -0.35069677,  -0.12394497,   0.23756708,   0.12712267,
     -0.18587276,  -0.11306100,   0.12050978,  -0.36129480,  -0.10503865,   0.19364937,  -0.06658652,   0.01486296,
      0.06233276,   0.18676448,  -0.08630129,  -0.30995363,  -0.06010725,  -0.15683377,   0.10794587,  -0.29555133,
     -0.02155378,   0.01508080,  -0.23923999,   0.53053150,   0.03037750,   0.17910196,  -0.80847925,   0.16204637,
     -0.02364767,   0.20837854,   0.19032703,   0.08597266,  -0.35865092,  -0.06079243,  -0.01261278,  -0.02253433,
      0.02007675,  -0.08564378,  -0.02524374,   0.06752062,  -0.02437482,  -0.17059477,  -0.05697985,   0.10950818,
      0.19566488,   0.40433854,  -0.05693518,  -0.07900527,   0.08856848,  -0.15585060,   0.06049287,  -0.20681453,
      0.05867532,   0.11777036,  -0.04653442,   0.13517836,  -0.05915639,   0.07469719,   0.08386325,   0.12976667,
      0.00374541,  -0.06437922,   0.74124926,   0.03152278,   0.17018162,  -0.12793992,  -0.26098457,  -0.06759930,
      0.64104180,   0.02810687,  -0.03351699,   0.21171725,   0.02929101,  -0.17591022,   0.39956227,  -0.00036023,
      0.07166862,   0.20121230,  -0.11337160,   0.06703918,   0.41738588,   0.37943068,  -0.13767748,  -0.23512731,
     -0.04019409,  -0.47453030,  -0.94193610,  -0.18204366,   0.10167800,  -0.29817858,  -0.36596420,   0.14449686,
     -0.13545035,  -0.07155999,   0.10920386,  -0.10006548,   0.25261128,  -0.00636986,   0.13412762,  -0.02247709,
     -0.04202517,  -0.18211444,  -0.17711759,   0.23422090,   0.24159668,  -0.08512715,   0.08276361,   0.02232272,
      0.12533464,   0.21928595,   0.27974057,  -0.31708494,  -0.23851494,  -0.14885746,  -0.14779599,  -0.03963810,
      0.08548272,  -0.04534193,  -0.03891086,   0.45474038,   0.29989484,   0.03790042,  -0.05552626,   0.04989874,
     -0.05222744,  -0.51769690,  -0.04578077,  -0.14618398,  -0.05582425,  -0.09631658,   0.21914600,  -0.00828067,
     -0.24627335,  -0.13092978,   0.04051006,  -0.12564552,  -0.15957016,   0.51585460,  -0.43931360,  -0.16482642,
     -0.10894336,  -0.42752400,  -0.24907910,   0.10384023,   0.04611450,   0.20016417,  -0.49433953,  -0.13555783,
     -0.11738523,  -0.24328610,   0.02902115,  -0.11165839,  -0.43549500,  -0.43877685,   0.03055571,   0.12425567,
     -0.30327994,   0.20578212,   0.51269280,   0.18881507,  -0.24182038,  -0.12763849,  -0.05345756,   0.14564236,
      0.41352140,   0.00651788,  -0.22883390,   0.01926078,   0.08662605,  -0.08382908,   0.42338553,   0.04235287,
      0.03984337,   0.17324282,  -0.13166891,   0.16257927,   0.31070486,   0.11353586,   0.15455200,   0.11838850,
      0.09047195,   0.29413262,  -0.46332770,   0.10031898,  -0.13131504,  -0.04535570,  -0.18400973,  -0.02041000,
      0.16225484,  -0.11342392,  -0.04314861,   0.01029880,   0.04417460,  -0.23546195,   0.12982732,  -0.18455367,
     -0.16137964,  -0.13890778,  -0.03570751,   0.10022781,   0.02846262,   0.09539948,   0.15185872,   0.08477390,
     -0.04942549,  -0.22674236,   0.04241385,  -0.07270005,  -0.06942755,   0.02647952,  -0.08478740,   0.01042576,
      0.01504535,   0.13051020,   0.04779173,   0.05818899,   0.12823708,  -0.19847490,  -0.06928926,  -0.18822937,
     -0.04224792,   0.13383044,   0.19331450,   0.14889382,  -0.49808773,   0.14307366,   0.06159704,   0.06488305,
      0.11714872,   0.03198059,  -0.01067982,  -0.01576782,   0.10075581,   0.26444760,  -0.00108484,  -0.06081578,
      0.23460194,   0.25752568,   0.04531795,  -0.16769724,   0.05690998,  -0.04436968,   0.07894415,  -0.97971970,
      0.13047440,  -0.07725576,  -0.13704270,   0.44708246,  -0.15829353,  -0.03660867,  -0.31774482,   0.46663946,
     -0.16414452,   0.11808054,   0.09975813,   0.10019784,  -0.49307308,   0.07907825,   0.01176628,  -0.08944331,
      0.04216568,  -0.19921170,   0.02604324,   0.00811179,  -0.10459150,  -0.05045957,  -0.02882136,   0.30531520,
      0.25456974,   0.17975415,   0.01861264,  -0.16240703,   0.06894668,  -0.07266239,   0.04884005,  -0.18955240,
      0.03026344,   0.07327764,  -0.44930252,   0.08101981,   0.02761110,   0.09780590,  -0.35389700,   0.10349371,
     -0.07391485,   0.09863946,   0.26411223,  -0.11222803,  -0.08122259,   0.08841568,  -0.00448615,  -0.05590567,
      0.17787227,   0.04504063,  -0.04089212,   0.02161594,  -0.17942673,  -0.50057715,  -0.03479638,   0.01060890,
      0.02245155,   0.11948132,   0.23461647,   0.10129820,   0.04425963,  -0.04587402,  -0.09679741,  -0.10786715,
     -0.07971374,   0.03652740,   0.13879538,  -0.07333844,   0.08613387,   0.07352050,   0.08376984,  -0.01162686,
     -0.06405764,  -0.33232564,   0.47834045,   0.02040928,   0.19613916,  -0.40696650,  -0.86244065,  -0.08187167,
      0.28701508,  -0.09765434,  -0.02851993,   0.03935268,  -0.09276290,  -0.19832301,   0.36437201,   0.01744682,
     -0.03740080,   0.25664493,  -0.69935890,   0.15371680,   0.33267164,   0.34871855,  -0.34350967,  -0.10178607,
     -0.00072922,   0.12704898,  -0.42087457,  -0.70336420,   0.07536808,  -0.15791579,  -0.05641961,  -0.22530149,
      0.05547961,  -0.01144080,   0.09187099,  -0.01239263,  -0.12641600,  -0.14815162,   0.05736426,   0.12688398,
      0.04819123,   0.03653234,   0.09041189,   0.25794238,   0.52725714,  -0.12940244,   0.29345357,  -0.04741390,
     -0.07209109,   0.02192544,   0.05340027,  -0.67316574,  -0.13318214,  -0.09774306,  -0.01772984,  -0.07860898,
     -0.02742471,  -0.38602972,  -0.51718480,   0.35099676,  -0.08029982,  -0.14700770,  -0.42604762,   0.15304618,
      0.14677437,  -0.37808868,   0.05934402,   0.12197184,  -0.06153206,   0.09257153,  -0.14517233,  -0.09076394,
     -0.07362018,   0.14796490,  -0.47245080,   0.25897348,   0.00623158,  -0.02772664,   0.35464590,   0.00652590,
      0.08033954,  -0.15851377,  -0.04900883,   0.08723971,   0.05354624,   0.11283013,  -0.10183012,  -0.14560828,
      0.03792611,  -0.28040960,  -0.21067825,  -0.12429862,  -0.17998270,  -0.31298688,  -0.46391225,   0.06066523,
     -0.10065445,  -0.19653943,  -0.03441112,   0.29290447,  -0.06727665,   0.07222676,   0.29656288,   0.21083540,
     -0.10070643,   0.03572790,  -0.16156186,   0.06196669,   0.21469782,   0.00752229,  -0.03429488,  -0.18382232,
     -0.01506066,   0.04306885,   0.12461075,  -0.41520047,  -0.20607800,  -0.24078844,  -0.08940022,  -0.31698433,
     -0.01681028,  -0.18401816,  -0.20056371,   0.17829253,  -0.22032304,  -0.36548070,  -0.26652655,  -0.00814608,
      0.00941656,  -0.01882629,   0.07991329,  -0.03830024,   0.09728351,  -0.28026882,  -0.12798439,  -0.02446840,
     -0.09228978,  -0.27859926,   0.06714267,   0.21238932,   0.26944888,  -0.17874497,   0.14699003,   0.54970360,
      0.07632452,   0.05305219,  -0.10264105,  -0.41766536,  -0.33641192,   0.16496946,   0.04200583,   0.04388416,
      0.12676512,   0.01338287,  -0.09561429,   0.04833463,   0.07934446,  -0.06259682,  -0.13743189,  -0.20180497,
      0.00780787,  -0.05691131,   0.09084190,   0.16496389,  -0.54736250,   0.10307843,   0.02292657,   0.20595254,
      0.08819260,   0.26984810,  -0.25810380,  -0.13775802,   0.05092714,   0.11226730,   0.02322331,  -0.05873838,
     -0.03219593,   0.06635239,   0.12671990,   0.11390042,   0.03370986,   0.13021623,  -0.11546315,  -0.55199903,
     -0.04250355,  -0.02827793,   0.03834592,  -0.01454752,  -0.18389516,   0.00220479,  -0.04907874,   0.06737700,
      0.24380262,  -0.02696293,   0.01904811,  -0.07720985,  -1.05490710,  -0.06555622,  -0.20836484,   0.01532270,
      0.20711155,   0.00314134,   0.17214549,   0.17937374,   0.04643745,   0.04811690,   0.04648907,  -0.02413362,
      0.02210898,  -0.05697895,   0.07115156,   0.08199160,   0.13497743,   0.26091840,   0.16330738,  -0.17073718,
     -0.08825653,  -0.39456072,  -0.29610536,  -0.22152732,  -0.03087874,   0.10379378,  -0.04231706,   0.12189693,
     -0.05168017,  -0.02830311,  -0.52984950,  -0.10050370,   0.01276502,   0.29825014,  -0.13960573,   0.02312348,
     -0.05377721,  -0.13219593,   0.23064564,  -0.01710777,  -0.01415370,  -0.22529270,   0.03307192,  -0.15799893,
     -0.04963319,  -0.09879138,   0.19180916,   0.01834146,  -0.06249749,   0.08788895,   0.05914839,  -0.27447680,
     -0.25050380,  -0.19844484,   0.05136113,  -0.23338110,   0.18267460,   0.13063036,  -0.05514398,  -0.05427252,
     -0.07280539,  -0.21517980,   0.03395734,  -0.40095276,  -0.30202940,  -0.21707517,  -0.31856784,  -0.41792640,
      0.11743965,   0.25168052,   0.50289760,  -0.13406523,  -0.08505891,   0.40764257,   0.09525869,   0.15875933,
     -0.09669365,  -0.46646023,  -0.33025816,   0.18391009,   0.01369733,   0.06759034,  -0.12853882,   0.21073782,
      0.14118980,   0.35294628,   0.20595542,  -0.63830390,  -0.16003013,   0.01066237,   0.10881499,  -0.24343538,
     -0.18355042,  -0.03391970,  -0.27385047,   0.26788960,  -0.07372390,   0.19715512,   0.41583250,   0.38154030,
     -0.10416770,   0.07061500,  -0.13061573,  -0.58738650,   0.35391167,   0.05873697,  -0.37444243,  -0.69615924,
     -0.05754443,   0.14127478,   0.15634763,  -0.55494297,  -0.35241032,  -0.03511756,  -0.08937203,  -0.33136567,
     -0.22773948,  -0.32783237,  -0.34437080,   0.36563194,  -0.10074773,   0.29699686,  -0.16532256,   0.40258288,
      0.15996891,  -0.28665820,   0.04023809,   0.11674329,  -0.30286437,  -0.03918901,   0.00081188,  -0.04958261,
      0.05721612,   0.25848580,  -0.24108005,   0.00685051,  -0.00021066,   0.07542092,   0.09744207,  -0.06712917,
      0.06170045,  -0.10226697,  -0.11931427,   0.24626300,   0.09420782,  -0.01692756,  -0.06717417,  -0.22117369,
     -0.06859179,  -0.24650067,  -0.08908700,  -0.13078010,  -0.60846140,  -0.19301113,  -0.15120160,   0.09224570,
      0.28724393,  -0.27631160,  -0.49676734,  -0.33677070,  -0.02743730,  -0.13430375,   0.30752903,   0.15539531,
     -0.24330096,   0.02323590,   0.03211139,  -0.57829220,  -0.07544531,   0.31154996,  -0.16473566,  -0.63268680,
     -0.38254377,  -0.30016506,  -0.22009818,  -0.04675300,  -0.40658292,   0.01216765,   0.03058115,  -0.35425717,
      0.10025054,  -0.14906126,  -0.07768106,   0.35385606,  -0.07973123,  -0.05324831,  -0.06077627,  -0.03303300,
     -0.45885587,   0.06237541,  -0.02963818,  -0.09558062,   0.10427248,  -0.09919982,   0.19653668,  -0.05676408,
     -0.10909994,  -0.29031286,   0.15537901,  -0.25465545,  -0.45920310,   0.14612529,  -0.40538982,   0.25504974,
     -0.12855028,   0.06640475,  -0.21987814,  -0.04548664,  -0.05540644,   0.05491165,   0.12357380,   0.07789219,
      0.24005479,   0.10232260,   0.17910622,  -0.22771873,  -0.03328734,   0.16376520,   0.15942098,  -0.24131699,
      0.17743191,  -0.59724957,  -0.00863543,   0.30460283,  -0.47566143,  -0.14589891,   0.02182823,   0.06268087,
     -0.04626009,   0.10456607,  -0.08224618,   0.05464341,   0.04090467,   0.02477809,   0.21847129,  -0.14806575,
      0.01928574,  -0.47359896,  -0.01701995,   0.20320968,   0.06877254,   0.02319440,  -0.31124170,  -0.21926855,
     -0.08244111,  -0.30645170,  -0.09149941,   0.01907054,  -0.42088544,  -0.23698547,  -0.11117811,   0.08846404,
     -0.01065747,   0.09800275,  -0.05322607,  -0.40398717,  -0.37426028,  -0.03556379,   0.03081547,   0.03024812,
     -0.03594028,   0.13145454,   0.09281474,  -0.01773760,  -0.01490187,   0.17438848,  -0.41863438,   0.04973063,
      0.10312872,   0.06794240,   0.42349320,  -0.16504331,   0.01941176,   0.30452883,  -0.09612343,  -0.22834894,
      0.11173426,  -0.07520796,  -0.06408674,   0.02562674,   0.36398607,   0.37434235,  -0.00372867,   0.28106820,
     -0.30333772,   0.01499759,  -0.29446520,  -0.38775426,  -0.07528012,   0.16972100,   0.27481613,   0.10205610,
     -0.29498130,   0.02168943,   0.07344460,  -0.03828819,   0.22353569,   0.02535378,  -0.18698180,  -0.65366936,
     -0.31299420,   0.11451624,   0.49403933,  -0.57436770,  -0.35208280,   0.19467406,  -0.10573156,  -0.43402874,
     -0.38844624,  -0.25526482,   0.04510089,   0.28524324,   0.24828184,   0.45387888,  -0.01423370,  -0.00284425,
      0.28923067,  -0.93495640,  -0.12649423,  -0.07608405,   0.12467253,  -0.24765362,  -0.59336317,   0.11314563,
      0.09419930,   0.48601297,  -0.26864160,  -0.02345757,  -0.03674944,  -0.14197478,  -0.09619360,   0.07470369,
      0.20272757,  -0.99761814,   0.28589672,  -0.15389167,   0.08574615,   0.09259476,  -0.86672187,  -0.71905470,
     -0.17764023,  -0.67437536,   0.02351907,  -0.07975549,  -0.26646656,  -0.47656430,  -0.04933929,   0.19397327,
      0.19152945,  -0.10714249,  -0.58346760,  -0.09329979,   0.09592756,   0.04589460,   0.05368552,   0.12460407,
     -0.32753822,  -0.02670253,   0.16702817,   0.08929205,   0.06280044,   0.10768877,  -0.24076635,  -0.25802717,
     -0.01540038,  -0.17109767,  -0.07173535,   0.11251245,  -0.24814804,  -0.22315663,  -0.17772803,   0.06280459,
     -0.18553182,  -0.00607669,   0.10742182,   0.07487198,  -0.05561256,   0.05466605,   0.07511785,   0.14705380,
     -0.17967601,  -0.74128840,   0.18575140,  -0.00520168,  -1.04531820,  -0.42704394,  -0.40121080,  -0.09702167,
      0.24944107,   0.29111058,  -0.42437088,  -0.07351852,  -0.02268959,   0.45448923,   0.26605877,  -0.15908302,
      0.10148281,   0.11350348,  -0.56874275,   0.58511937,   0.62921910,   0.38239010,  -0.84575490,   0.21231195,
     -0.01123289,   0.07349187,   0.19886220,  -0.35355002,  -0.66280450,  -0.65383940,   0.24887379,  -0.01518107,
     -0.12553875,   0.05770895,   0.28368196,  -0.06270819,   0.19137031,  -0.00870594,  -0.18870420,  -0.04678584,
      0.14754729,   0.13259830,  -0.17906451,   0.07954888,   0.05069352,  -0.20900904,  -0.04106313,   0.23883840,
     -0.09563013,   0.25074196,   0.05745472,  -0.12600766,   0.13519426,   0.14505781,  -0.04403389,  -0.13980079,
      0.03573764,   0.13887669,   0.05157235,  -0.08441594,   0.12466680,   0.03216553,   0.04273798,  -0.07221737,
      0.01687902,  -0.26962948,  -0.13098796,   0.10817403,   0.11686943,   0.01967138,   0.24507679,  -0.29979557,
     -0.15067870,  -0.03646290,   0.03513549,  -0.04193116,  -0.18985455,   0.11960588,  -0.24393220,  -0.11907164,
     -0.04629426,  -0.27807206,  -0.09880011,  -0.10253655,  -0.32783893,  -0.15721690,  -0.13455048,   0.07213713,
     -0.07380341,   0.05840550,   0.10497567,   0.03594844,   0.05002432,  -0.25632948,   0.10556973,  -0.07106747,
     -0.02620417,  -0.09991312,   0.00122519,  -0.01195652,  -0.18406236,   0.16284709,   0.10981802,   0.04315669,
     -0.21427412,   0.08144610,  -0.97010756,   0.04035852,  -0.01990567,   0.11045861,  -0.00445216,   0.11778521,
      0.08686868,   0.15840888,   0.14247094,   0.10543449,  -0.04576255,  -0.12114170,  -0.71363480,  -0.00253331,
      0.11103476,   0.12624256,   0.12494858,  -0.12145801,  -0.14354837,   0.02275570,   0.26335326,  -0.07252860,
     -0.10136793,   0.26909640,   0.21285582,   0.12003140,  -0.19835696,   0.10667630,   0.15358306,  -0.00715182,
      0.16332398,  -0.21499689,   0.17788033,   0.03369014,  -0.03265631,  -0.03391007,   0.12632997,  -0.16949050,
      0.20893516,   0.09904942,  -0.01417737,  -0.17813495,   0.10057823,  -0.17011240,   0.16303128,  -0.68700135,
      0.00360626,   0.22584997,  -0.30763057,   0.41773080,   0.09716707,  -0.02968258,  -0.17385411,   0.18215759,
      0.08417577,  -0.60813770,  -0.11310269,   0.01256617,  -0.04067890,   0.00486318,   0.28046280,   0.03350354,
     -0.23626052,   0.17737871,  -0.69762730,  -0.13480276,   0.06612169,   0.18839718,  -0.00377246,  -0.15392473,
      0.01678421,  -0.07934049,   0.22917053,   0.03878384,  -0.05722176,   0.00502113,  -1.35600360,  -0.11178672,
      0.09034175,   0.08262547,   0.07423390,   0.03021455,  -0.10649416,  -0.09201746,   0.12354600,   0.13066697,
     -0.16899346,  -0.00580628,   0.82712180,   0.29891077,  -0.52786624,   0.01666499,  -0.44064638,   0.01003618,
      0.83065444,  -0.05791232,  -0.12706123,   0.09774494,  -0.02670957,  -0.24284360,   0.83380246,   0.21920124,
      0.08251178,   0.24355577,  -0.29596165,   0.16433956,   0.51950620,   0.21240923,   0.12535594,  -0.49700388,
      0.00376059,   0.14521521,  -0.25947880,  -0.40145080,  -0.20867465,  -0.44168720,  -0.48335043,  -0.16955316,
     -0.34546658,   0.41815140,   0.08425993,  -0.26234373,   0.26799140,   0.05751625,   0.04545082,   0.16153683,
      0.04962029,  -0.62834424,   0.24457434,   0.38001865,   0.51976060,  -0.83499616,  -0.08560738,   0.20642222,
      0.01858301,   0.22926696,  -0.05670021,  -0.53937966,  -0.59745884,  -0.15192144,   0.32183832,   0.24312136,
     -0.06478541,   0.06462730,  -0.23417234,   0.18912320,   0.42755702,   0.09940331,  -0.04947471,  -0.15841976,
      0.09059628,  -0.47446302,   0.14887820,   0.05798683,  -0.32537344,  -0.18211333,  -0.15395057,  -0.36452916,
      0.13345386,  -0.01752571,  -0.05340656,   0.19464365,  -0.18787930,   0.21300393,   0.54646510,   0.22450887,
     -0.06888643,   0.05225604,  -0.47333682,   0.17776015,   0.37750250,   0.22016397,  -0.42409775,   0.16478622,
      0.17262642,   0.08542897,  -0.02313903,  -0.23278265,  -0.17130825,  -0.60908300,  -0.07369929,  -0.02000758,
     -0.02372333,  -0.07582398,   0.12999152,   0.10969902,  -0.08825708,  -0.06417057,  -0.27356783,   0.13107246,
     -0.04253120,   0.09466320,  -0.56614680,   0.05915887,   0.07617292,  -0.00559959,  -0.05575140,   0.04044872,
      0.06384504,   0.02448354,  -0.03237626,   0.07226680,   0.08222707,   0.06193197,  -0.22089005,  -0.14750141,
      0.11943914,   0.10613470,   0.19833672,  -0.38401937,  -0.13575836,  -0.17900491,   0.07035982,  -0.03293787,
      0.11622755,   0.06768449,   0.04315405,   0.04751275,   0.12797762,  -0.05938884,   0.01489485,   0.02381269,
      0.12949339,  -0.21056965,  -0.00382006,   0.15771468,   0.38058640,  -0.13324259,   0.17069112,   0.18495627,
     -0.01694979,   0.05251984,   0.00521093,  -0.22144128,  -0.60893667,  -0.05841985,   0.16075929,   0.03515727,
      0.03186990,   0.01988711,  -0.15147130,   0.19470292,   0.10671248,  -0.04902638,  -0.36332574,  -0.00215724,
      0.02175801,   0.09161202,  -0.06279962,  -0.00118293,  -0.03690346,   0.22842568,  -0.10349160,   0.08750356,
     -0.02520684,   0.14785263,  -0.39754492,   0.04616800,  -0.08251103,  -0.06455138,  -0.13905199,   0.02486592,
      0.29448944,   0.16577733,   0.01692097,   0.01095737,  -0.06103206,  -0.10776801,   0.06628250,  -0.07511935,
     -0.03590391,  -0.01598894,   0.18275976,  -0.09548171,  -0.18367396,   0.06950622,   0.30447522,   0.15269636,
     -0.16148570,   0.12823205,   0.27913642,  -0.01154998,  -0.28293934,   0.07589314,   0.20710965,   0.03390335,
      0.11749382,  -0.07921033,   0.07166096,   0.17629354,   0.02025835,  -0.02526503,   0.07664958,   0.00189931,
      0.13831596,   0.13807510,   0.08666930,  -0.12640990,   0.10370952,   0.00606208,   0.07097813,  -0.56298470,
      0.14678168,   0.38263002,  -0.12542836,   0.09309981,   0.14663047,   0.09344919,  -0.01589866,   0.22096530,
      0.11918715,  -1.04946800,  -0.16664217,   0.03749001,   0.15193973,  -0.09889399,   0.09082128,   0.00179878,
     -0.31860210,   0.19816048,  -0.45677382,  -0.04188643,   0.02596712,   0.09781390,  -0.05692095,  -0.07105868,
      0.04202666,  -0.31169070,   0.16374952,   0.03967941,  -0.00919054,  -0.04412578,  -0.99622860,  -0.07366279,
     -0.07720601,  -0.00775690,   0.05830322,   0.03355304,   0.02494644,  -0.24621294,   0.09832965,   0.12802573,
     -0.02468050,  -0.14965752,   0.44146764,   0.04965692,  -0.29255566,  -0.11622057,  -0.20944524,  -0.21203550,
      0.39749060,  -0.05174514,   0.04669956,   0.14620192,  -0.13844624,   0.02035064,   0.37124518,   0.29920000,
      0.05609319,   0.24752024,  -0.47636494,   0.13594154,   0.13946497,   0.02153057,  -0.12867370,   0.00484125,
      0.20899846,   0.42612620,  -0.10216156,  -0.54379120,  -0.25408033,  -0.51132070,  -0.16778192,  -0.05643713,
     -0.52077246,   0.46010590,   0.16194227,  -0.24231125,  -0.13745514,   0.11158281,   0.08340714,   0.31751530,
      0.29571310,  -1.01947050,   0.03066144,  -0.00821571,   0.32213030,  -0.31257033,   0.08666651,  -0.07901719,
     -0.11564399,   0.33015507,   0.01086406,  -0.25367588,  -0.40790190,  -0.25790706,   0.28266558,   0.12277812,
      0.15888370,  -0.14156407,  -0.34291470,   0.23303400,   0.21090147,   0.30469298,  -0.13046232,  -0.09326728,
      0.40702500,  -0.30077997,   0.03983904,   0.33025420,  -0.25898364,  -0.29648545,   0.03472322,   0.10606159,
      0.18788256,   0.60805040,  -0.13391481,   0.13586092,   0.18280526,   0.38299760,   0.35514984,  -0.01699910,
      0.13885966,  -0.05507285,  -0.22683424,  -0.11899315,   0.18441126,  -0.09810518,  -0.28413600,  -0.42339520,
     -0.06078335,  -0.52729285,  -0.59909650,   0.10357756,  -0.37412060,  -0.45109135,  -0.58478343,   0.28060767,
     -0.04897949,  -0.27354515,  -0.03798217,   0.06142084,  -0.11374646,   0.07965279,  -0.19821541,  -0.09101956,
     -0.21741280,   0.02672051,  -0.39774483,   0.03888131,  -0.15530439,  -0.04426631,   0.06814733,   0.13708620,
      0.03922151,  -0.29440690,   0.02633901,   0.11787952,  -0.00987897,  -0.01491961,  -0.22321008,  -0.00032522,
     -0.02360342,  -0.02504354,   0.12828398,  -0.38496092,  -0.23263651,  -0.24951100,   0.06241500,  -0.13399270,
     -0.32899110,   0.17676468,   0.14218584,  -0.01403486,  -0.02458626,   0.05430931,  -0.12961298,   0.05847230,
      0.33941242,  -0.39657290,  -0.03189180,  -0.00867344,  -0.09126541,  -0.21983418,   0.41505850,   0.47461212,
      0.07012255,   0.10671427,  -0.03820386,  -0.09756507,  -0.18432590,  -0.19409764,   0.10698008,   0.17334318,
      0.06016039,   0.41354800,  -0.27588823,   0.04697153,  -0.01023493,   0.06121499,  -0.28625128,  -0.02804558,
      0.25123203,  -0.34442505,  -0.31495723,   0.16529863,   0.19213603,   0.15608026,   0.06715961,  -0.00440514,
     -0.05437249,   0.26511362,  -0.15153056,   0.08219483,   0.12031854,  -0.02100249,   0.08468809,  -0.23081379,
     -0.15941548,  -0.28832963,   0.38712720,  -0.07428521,   0.01078334,   0.10991601,  -0.39932550,  -0.33685280,
     -0.41746270,  -0.35502425,   0.00504492,   0.00441889,  -0.10881803,   0.03143826,   0.18807374,  -0.04748755,
     -0.09889547,   0.00898498,   0.21203700,  -0.38370758,   0.07905865,  -0.03210673,   0.02539709,  -0.07977176,
     -0.09090745,   0.12812985,  -0.18391849,  -0.06063240,  -0.12870488,  -0.31946920,  -0.45509994,  -0.06307088,
     -0.16143584,   0.16593832,   0.23980677,  -0.19548632,   0.08616231,   0.03255051,  -0.11019541,  -0.61005133,
     -0.22249134,  -0.02725293,  -0.06411281,  -0.12675798,  -0.05547093,   0.05908696,  -0.11373849,  -0.00516760,
     -0.15722153,  -0.59782200,  -0.32390323,  -0.21797230,   0.34209588,  -0.07021537,  -0.25282922,  -0.12297127,
     -0.58855440,  -0.13397025,  -0.42886007,   0.32814732,   0.07680204,  -0.11959092,  -0.04431615,  -0.09962815,
     -0.01661703,  -0.09880548,   0.27003387,  -0.12415050,  -0.07097734,  -0.08563400,  -0.80029720,  -0.30768663,
     -0.17007077,  -0.00595071,   0.15657987,  -0.16542022,   0.20552740,   0.01836112,   0.07227457,   0.00152416,
     -0.08114158,  -1.07754470,   0.05950928,   0.32461882,  -0.26668140,  -0.87403500,   0.39314198,  -0.19707271,
     -0.02772452,   0.21805568,  -0.20352614,  -0.09623862,  -0.08222248,   0.40463614,   0.03245724,   0.11440225,
      0.01566846,   0.00728355,  -0.29631847,   0.27945030,   0.10136070,   0.19896485,  -0.65456560,   0.40295990,
      0.09986252,   0.11634251,   0.12313364,  -0.31144670,  -0.25611010,  -0.44492040,   0.07871733,  -0.15900141,
     -0.62400840,   0.43636286,  -0.28359395,  -0.12325158,   0.38982975,   0.26488167,   0.15521474,  -0.13122721,
      0.17031501,  -0.57488376,   0.31112736,  -0.51513577,  -0.24817859,  -0.06322828,  -0.49930236,  -0.09960328,
     -0.38003075,  -0.00384672,  -0.02121656,  -0.17512828,  -0.42126554,  -0.08700036,   0.06702402,  -0.05328310,
      0.15265900,  -0.07134599,   0.03347123,   0.01955836,   0.39192710,   0.38913313,   0.22800606,  -0.17447372,
      0.34832248,  -0.32762638,   0.03956550,   0.21317258,  -0.31736562,  -0.24563311,   0.32499886,   0.07146887,
     -0.02033815,   0.10024916,  -0.38539433,  -0.00469218,  -0.03806641,   0.11486958,   0.00192798,  -0.03658146,
     -0.01506241,  -0.08753239,  -0.10446770,  -0.06449696,   0.11756190,  -0.24987136,  -0.12910055,  -0.22964120,
     -0.08737255,  -0.37799310,  -0.33048943,  -0.00536494,  -0.38696173,  -0.28376713,  -0.16602224,   0.25580865,
     -0.05124519,  -0.34462112,  -0.52908826,  -0.14031730,   0.11589637,   0.05228259,  -0.36403870,  -0.17266682,
     -0.38459210,  -0.08557962,  -0.07999530,  -0.06954672,  -0.00581675,  -0.05699251,   0.00812023,   0.07901175,
     -0.08828896,  -0.52934813,   0.18671560,   0.18686244,  -0.11612248,  -0.11116035,  -0.12528220,   0.08566937,
     -0.01906668,   0.03501937,   0.24738085,  -0.39020824,   0.02751816,  -0.25676557,   0.12112112,  -0.13605814,
     -0.12098047,   0.26706752,   0.16961914,   0.05002089,  -0.59569710,  -0.02522348,   0.14815234,  -0.24628928,
      0.22657180,  -0.13371496,   0.06687794,  -0.00456062,  -0.40736684,   0.05053054,   0.19403964,   0.24322362,
     -0.09867769,   0.04331806,  -0.20717862,   0.21169520,   0.17968571,  -0.11649264,   0.12125578,   0.07795016,
      0.16571070,   0.20148443,  -0.03218437,  -0.22246365,  -0.19625180,   0.03860619,  -0.01736471,  -0.22411740,
      0.04215265,  -0.41514271,  -0.19471973,  -0.00962318,   0.06882696,  -0.05918459,   0.21415180,   0.04650033,
     -0.25392744,   0.15737385,  -0.43044140,   0.03945151,   0.24597603,  -0.08557092,  -0.03875396,  -0.19899926,
     -0.21569179,  -0.10622199,   0.38240117,  -0.23697902,  -0.01484995,   0.09419397,  -0.74820614,  -1.13402220,
     -0.33273060,  -0.60014890,   0.24069424,   0.02085527,  -0.03003198,   0.13928665,   0.35789308,  -0.11784339,
     -0.34198060,   0.04982346,  -0.35822994,  -1.11968530,   0.09315247,   0.13621610,   0.01715348,  -0.16929793,
     -0.10940120,  -0.20789126,   0.20980513,   0.15523876,  -0.00138571,  -0.42343600,  -0.15909287,  -0.32048336,
     -0.10582589,   0.28875634,   0.07484090,  -0.41220570,  -0.41249400,   0.12882127,   0.06572538,  -0.50789810,
     -0.83926785,  -0.43417132,   0.08493514,  -0.09947726,   0.62534934,   0.58839900,   0.12581463,   0.09592108,
     -0.59725020,  -0.02053738,   0.13684496,  -0.78178287,   0.54392135,  -0.31199554,  -0.35803095,   0.00904700,
     -0.75728090,  -0.41019820,  -0.45663230,  -0.15266520,   0.02829358,  -0.24650005,  -0.31479090,  -0.18217227,
      0.00573750,   0.37133273,   0.01764172,  -0.55073490,  -0.28631610,   0.12309720,  -0.85289687,  -0.32497033,
     -0.28235300,   0.06392184,   0.55345550,  -0.39069217,   0.48101628,   0.36095095,   0.38195908,  -0.15337211,
     -0.14198232,  -0.16076334,  -0.16357520,  -0.29384843,   0.43822154,  -0.38485680,  -0.47538120,   0.25790780,
     -0.32634532,   0.04166587,  -0.09821467,   0.08628628,   0.38243398,  -0.23573527,  -0.42566174,  -0.00115030,
     -0.06816936,   0.20616940,   0.17521533,  -1.26738640,  -0.31431803,   0.48074630,  -0.37136564,  -0.56969340,
     -0.38382033,  -0.64989840,  -0.27606824,  -0.01221316,   0.67803895,   0.82426554,   0.29059193,  -0.10704121,
      0.60957277,   0.04368797,  -0.61990666,   0.23904473,   0.11755947,   0.21180038,   0.64648354,   0.30743632,
     -0.34289008,  -0.07011755,   0.22887686,   0.15782930,   0.32766800,   0.35462680,  -0.21210407,  -0.06333224,
      0.13524638,  -0.22535168,   0.15432923,   0.18729244,  -0.58601093,  -0.57453936,   0.29503003,   0.58826524,
      0.32742740,   0.18377858,  -0.03522032,   0.67074320,  -0.21009913,  -0.25049037,  -0.10038735,   0.42482227,
      0.10134329,   0.22794186,  -0.87338180,   0.27226418,   0.23327420,   0.33530900,   0.06924426,   0.03077273,
     -0.23716028,   0.65678700,   0.09513224,  -0.54290444,   0.29722360,   0.07095809,   0.03075299,   0.24346471,
     -0.44979840,  -0.76593757,   0.11275454,  -0.45775136,  -0.76120585,   0.12547141,  -0.29756558,   0.07351933,
      0.31334856,  -0.32598257,   0.10487699,   0.00056355,   0.33480725,  -0.16878478,  -0.18215896,   0.35594615,
     -0.27221020,  -1.09795980,  -0.11770123,   0.34202495,  -0.48987326,   0.13617949,   0.56842770,  -0.13324466,
      0.09828202,   0.00749885,   0.12265021,   0.13951000,  -0.20466982,   0.21271418,  -0.11658552,   0.39597390,
     -0.38555792,   0.01455894,   0.27698710,   0.14068791,   0.09265079,  -0.26501173,   0.14862026,   0.22787729,
     -0.34111330,   0.51089800,   0.19493952,   0.59052030,  -0.03770630,   0.67823320,   0.00551269,   0.69495475,
      0.56687210,  -0.01723124,  -0.10013778,   0.13931797,  -0.07393142,  -0.14840442,  -0.27645275,  -0.24931319,
      0.59069365,  -0.20126626,  -0.69896760,  -0.00659902,  -0.05847133,   0.04450719,   0.59296380,  -0.46836520,
      0.08693607,  -0.19298427,  -0.88889045,  -0.29238036,  -0.28142643,   0.76713306,   0.02119467,   0.33255437,
      0.04341068,  -0.02422743,   0.48456627,  -0.18721268,  -0.40091565,   0.03449801,   0.21247113,   0.21345910,
      0.20670529,   0.12274454,  -0.67367730,   0.29933205,   0.01843731,   0.51978180,  -0.21460979,   0.19454405,
     -0.00666368,  -0.05015758,   0.38578922,   0.34718326,   0.09499177,   0.81615050,  -0.13176182,   0.14398445,
      0.08542428,  -0.12678248,   0.33255553,  -0.34482324,   0.14960355,  -0.68700240,   0.27718684,  -0.44409636,
      0.09942289,  -0.08221533,   0.07046761,   0.42833582,   0.27441108,   0.47143242,   0.20296720,   0.25560287,
     -0.25384950,  -0.81827370,   0.16734055,   0.24544531,  -0.71384530,   0.14974049,   0.57019540,  -0.00720901,
      0.30632088,   0.05988583,   0.15686028,  -0.06662323,   0.26185000,   0.18381210,  -0.09419655,   0.43286493,
      0.10061458,  -0.03454834,   0.14964770,  -0.03055812,   0.40893778,   0.23308249,   0.44062838,  -0.17619745,
     -0.18081786,   0.49661195,   0.10898559,  -0.30090603,  -0.07432583,   0.08005546,   0.63943210,   0.11417659,
      0.17558937,   0.13535967,   0.06328722,  -0.02270737,  -0.40865870,   0.38985398,   0.26648816,  -0.14213718,
      0.47710887,  -0.17720120,   0.19913910,  -0.30930490,   0.44409746,  -0.26059452,  -0.38038100,  -0.38277704,
     -0.10159245,   0.15575384,  -0.90680620,   0.41086608,  -0.04563965,   0.37629660,  -0.05564075,  -0.06280632,
      0.30445307,   0.54317200,   0.13990483,  -0.30136004,   0.20894063,  -0.00447586,  -0.04798487,   0.60557630,
      0.10675873,  -0.04706169,   0.27975687,   0.06200157,   0.09541947,  -0.11588735,   0.04156253,  -0.56240845,
      0.34953335,   0.01662415,  -0.07357967,   0.33913654,   0.19304910,   0.78967150,   0.04202718,   0.32049537,
      0.04466172,   0.09744138,   0.05784861,  -0.04599649,   0.02586297,  -0.31230200,   0.16807082,   0.33608517,
     -0.19350904,   0.45384198,   0.53876780,   0.07891955,   0.23639059,   0.20934726,  -0.00471077,  -0.25936538,
     -0.21641272,  -0.17119515,   0.06754533,   0.45615080,  -0.55435650,  -0.00495284,   0.31115943,  -0.50724393,
      0.36995083,   0.29455584,  -0.04309778,  -0.25350400,   0.34350282,   0.27775615,   0.00185290,   0.59675730,
      0.32776040,   0.12620622,  -0.07764986,   0.39660683,  -0.33456206,   0.12069121,  -0.13196567,   0.41283120,
      0.24020988,  -0.09212314,   0.21778233,   0.02818333,   0.45153353,  -0.34942222,  -0.08606865,   0.32133603,
      0.22399510,  -0.04850175,  -0.71091550,  -0.22343372,   0.02416480,  -0.04763077,   0.03584667,   0.17437105,
      0.00219254,   0.57821375,   0.66600570,  -0.01937628,   0.07103607,  -0.09769716,  -0.19781868,   0.41836235,
     -0.39319637,  -1.13417150,  -0.44443077,  -0.61510290,  -0.21310960,   0.11319541,  -0.12753183,   0.06407148,
      0.16242288,   0.07642410,   0.18565567,   0.33600727,  -0.16720724,   0.09658147,  -0.25125808,   0.37530428,
      0.14549252,   0.00463659,  -0.12573913,  -0.03540260,   0.23881802,   0.72010887,   0.18734004,   0.16532087,
      0.32895336,   0.06813341,   0.06861252,  -0.18612085,  -0.10183660,   0.53866893,   0.27757170,  -0.12110624,
      0.07176101,  -0.02139528,   0.51699525,   0.11341067,  -0.29140246,  -0.02788092,   0.03707950,   0.52840513,
     -0.26103258,   0.83041830,   0.06462742,  -0.05240864,  -0.10291457,  -0.09670369,   0.23963577,   0.02949767,
     -0.00708956,  -0.70047410,   0.17518368,   0.45456398,  -0.55569935,  -0.31056488,   0.48968878,  -0.22135784,
     -0.24455471,  -0.17629601,  -0.02506355,   0.18536419,  -0.04459003,  -0.12898462,   0.01696141,   0.21719800,
      0.16860245,  -0.84866947,  -0.04116312,   0.32769546,  -0.08150556,  -0.20172954,   0.43410096,  -0.14113297,
      0.16244347,   0.17504254,   0.01675895,   0.24056487,   0.35979524,   0.21312508,   0.43413746,  -0.21098436,
     -0.17134467,  -0.50884740,  -0.01538337,  -0.45334664,  -0.92587890,  -0.54273330,  -0.02180817,   0.34746180,
      0.29241526,  -0.07633585,  -0.35990176,   0.13658033,   0.58071190,  -0.25505924,   0.04807461,   0.45707607,
      0.26769970,   0.35666883,   0.47051942,   0.32995403,  -0.88987190,  -0.06718516,  -0.36049360,   0.16603824,
      0.09056755,  -0.48715080,  -0.07583917,   0.39905939,   0.63115233,  -0.02625671,  -0.48204917,  -0.34322315,
     -0.01462348,  -0.05887878,  -0.05119715,  -0.08423701,   0.01491133,  -0.54293490,   0.14944759,   0.18385170,
      0.00273115,   0.09094183,   0.53502536,   0.41634306,   0.38413483,  -0.17271402,  -0.04698424,   0.02586921,
      0.02586396,   0.06440823,  -0.07722524,   0.47281128,  -0.59723570,   0.02324531,  -0.66282040,   0.54649650,
      0.21110070,  -0.25470355,  -0.01515203,   0.61999744,   0.06840459,   0.12778531,  -0.28657300,   0.33871920,
      0.54137910,  -0.16381136,  -0.30596516,   0.19274583,   0.13051544,   0.30583710,   0.06041567,   0.43152577,
      0.15574744,  -0.09698160,   0.04158276,   0.38487676,  -0.59522900,  -0.02851222,   0.36353514,   0.19502799,
     -0.22851282,   0.05835955,  -0.43818164,   0.06366394,   0.00045645,   0.24254075,  -0.09130916,  -0.83139956,
      0.13550624,  -0.22260496,   0.27046480,   0.00597501,   0.51713514,   0.61774695,  -0.03735770,   0.62501250,
      0.08759239,  -0.10765351,  -0.01411377,   0.03932141,   0.08762306,   0.20433673,   0.07826432,  -0.07853939,
      0.78000680,  -0.23121100,  -0.06662424,  -0.01631484,   0.05325107,   0.30540553,   0.13443105,   0.08012123,
     -0.02905806,  -0.80033386,   0.12551738,  -0.44277903,  -0.03040439,   0.21725239,   0.33654758,   0.10199857,
      0.51103175,  -0.28596590,   0.40669826,   0.21153648,   0.11662997,   0.29891282,   0.32786570,  -0.03031868,
      0.03294648,   0.04194431,   0.05116464,  -0.17006081,   0.03558091,   0.18750158,  -0.17163655,   0.33467120,
      0.23296084,   0.18956365,   0.13317445,   0.71059537,  -0.48329633,   0.00766892,   0.27155328,   0.15520264,
     -0.27440630,  -0.07988320,  -0.98196010,   0.00296702,   0.00909436,   0.13837594,  -0.03000803,   0.02857228,
     -0.05122488,   0.36275783,   0.63218206,  -0.24383354,   0.06658158,   0.13600181,   0.26119906,   0.63332200,
      0.87625384,   1.22731660,   0.50828445,   0.35255334,   0.88450580,   0.15440744,   0.29447460,   0.37721294,
      0.08012667,   0.31046346,   0.20983368,   0.64089710,   0.43537575,   0.64654005,   0.59816860,   0.06905603,
      0.48913524,   0.23401763,   0.22573926,  -0.20939171,  -0.17495687,   0.10086022,   0.29515532,  -0.12708057,
     -0.00131849,  -0.11489531,   0.48161830,   1.07936450,  -0.09597864,  -0.42639180,  -0.46263698,  -0.41862622,
      0.48118198,  -0.50470890,   0.11691339,  -0.45185470,   0.41714185,  -0.49232894,   0.24932693,   0.67784274,
     -0.55269665,  -0.08880210,  -0.19098713,   0.45181298,  -0.22850774,  -0.25402611,   0.27590272,   0.63144463,
     -0.17963901,   0.08520546,  -0.20713034,   0.49357557,  -0.19711383,  -0.24236210,  -0.40695417,  -0.24140406,
     -0.30233368,  -0.55824310,   0.45585520,  -0.29915276,  -0.13089529,  -0.27766153,   0.22286844,  -0.34660876,
      0.56608000,  -0.47790036,  -0.20169993,   0.26330703,  -0.02322754,  -0.26520050,   0.53220224,  -0.20730580,
      0.60697514,  -0.36293220,  -0.21627377,  -0.42522305,  -0.26533234,  -0.28709060,   0.38031694,   0.58027387,
     -0.06952169,   0.51445556,  -0.42568892,   0.19138731,  -0.07032479,   0.08424988,   0.61393280,  -0.48528240,
     -0.16562710,   0.23004949,   0.16340028,  -0.09928066,   0.51059120,   0.40687397,  -0.15550418,   0.02573684,
     -0.49032214,   0.34885097,   0.36961335,  -0.16816461,   0.58051646,  -0.30398190,  -0.22666260,   0.59593815,
     -0.50771105,   0.10660808,   0.10754460,   0.09923577,  -0.15748756,   0.39278966,  -0.22467560,   0.59581345,
      0.54720145,  -0.40421876,   0.41570330,   0.04862285,   0.29310054,  -0.97172934,  -0.30241978,  -0.52867090,
      0.32956420,   0.48123370,   0.25578216,  -0.20955572,   0.30044135,   0.11795806,   0.42238346,  -0.47911590,
      0.15190104,  -0.22791913,  -0.15489314,  -0.47149435,  -0.60156310,  -0.22712484,  -0.24318823,   0.30061450,
     -0.31896952,   0.24375676,  -0.45229638,  -0.23624814,  -0.38140580,   0.09051063,  -0.54617286,   0.66621340,
      0.27420090,   0.05718981,   0.00577763,   0.52142763,   0.30257833,   0.40601054,   0.20407605,  -0.40603715,
     -0.61489600,   0.14260995,   0.76187880,   0.02043959,  -0.09797386,   0.05749309,   0.49599215,   0.30569540,
     -0.44036013,  -0.00979236,   0.36581590,   0.02419192,  -0.02125873,  -0.63874560,  -0.41896000,  -0.14411223,
     -0.17677920,   0.16638634,   0.35373655,  -0.08797423,   0.02340570,  -0.23232615,  -0.04061007,   0.73520386,
      0.37805095,   0.04828238,   0.10512690,  -0.03911525,  -0.37471715,  -0.32735810,   0.03074579,  -0.29939792,
      0.47862810,   0.03526384
};

// Function to initialize weights array
void init_weights(fxp weights[NUM_WEIGHTS]) {
    for(int i = 0; i < NUM_WEIGHTS; i++) {
        weights[i] = weights_array[i];
    }
}

#endif // WEIGHTS_VITIS_H
